-2.7864e+07
-2.74711e+07
-2.71443e+07
-2.71412e+07
-2.7137e+07
-2.67279e+07
-2.56162e+07
-2.54298e+07
-2.51718e+07
-2.50381e+07
-2.41823e+07
-2.40172e+07
-2.38906e+07
-2.38759e+07
-2.376e+07
-2.36699e+07
-2.33352e+07
-2.29772e+07
-2.28521e+07
-2.21775e+07
-2.16863e+07
-2.16646e+07
-2.14331e+07
-2.14163e+07
-2.10362e+07
-2.09483e+07
-2.08337e+07
-2.03172e+07
-2.03086e+07
-1.94349e+07
-1.9418e+07
-1.9316e+07
-1.92372e+07
-1.8916e+07
-1.87213e+07
-1.84355e+07
-1.83484e+07
-1.83228e+07
-1.77305e+07
-1.72895e+07
-1.65727e+07
-1.65631e+07
-1.63481e+07
-1.6044e+07
-1.59754e+07
-1.58481e+07
-1.57922e+07
-1.5792e+07
-1.5345e+07
-1.52325e+07
-1.43163e+07
-1.43159e+07
-1.42405e+07
-1.31406e+07
-1.30105e+07
-1.30035e+07
-1.29601e+07
-1.29056e+07
-1.24465e+07
-1.23829e+07
-1.21775e+07
-1.17626e+07
-1.16714e+07
-1.15931e+07
-1.15311e+07
-1.14836e+07
-1.13663e+07
-1.12645e+07
-1.1166e+07
-1.11138e+07
-1.04613e+07
-1.03263e+07
-1.03106e+07
-1.02468e+07
-1.01598e+07
-9.82586e+06
-9.54284e+06
-9.43733e+06
-9.38132e+06
-9.37458e+06
-9.00412e+06
-8.88495e+06
-8.80749e+06
-8.67173e+06
-8.65077e+06
-8.52449e+06
-8.49574e+06
-8.46025e+06
-8.23527e+06
-8.05389e+06
-7.5697e+06
-7.49823e+06
-7.45286e+06
-7.29215e+06
-7.23599e+06
-7.17243e+06
-7.10284e+06
-6.9791e+06
-6.81689e+06
-6.73795e+06
-6.73474e+06
-6.73228e+06
-6.71691e+06
-6.6738e+06
-6.66648e+06
-6.59711e+06
-6.54327e+06
-6.44308e+06
-6.25396e+06
-6.23334e+06
-6.15248e+06
-6.14917e+06
-6.04719e+06
-6.03021e+06
-5.95265e+06
-5.95152e+06
-5.92358e+06
-5.8919e+06
-5.8584e+06
-5.83944e+06
-5.78565e+06
-5.74528e+06
-5.67498e+06
-5.67139e+06
-5.66428e+06
-5.59017e+06
-5.42139e+06
-5.28093e+06
-5.12072e+06
-5.0548e+06
-5.02126e+06
-4.95649e+06
-4.92659e+06
-4.87078e+06
-4.63132e+06
-4.55448e+06
-4.55415e+06
-4.52743e+06
-4.50078e+06
-4.47224e+06
-4.42904e+06
-4.4208e+06
-4.39539e+06
-4.34031e+06
-4.26379e+06
-4.25191e+06
-4.21894e+06
-4.20422e+06
-4.17114e+06
-4.13776e+06
-4.13381e+06
-4.04472e+06
-3.90768e+06
-3.9061e+06
-3.72111e+06
-3.59136e+06
-3.58173e+06
-3.58036e+06
-3.48546e+06
-3.45881e+06
-3.40347e+06
-3.38654e+06
-3.33047e+06
-3.30295e+06
-3.23459e+06
-3.20476e+06
-3.12651e+06
-3.11616e+06
-3.0949e+06
-3.06564e+06
-3.06261e+06
-3.05085e+06
-3.04477e+06
-3.03876e+06
-3.03874e+06
-2.99618e+06
-2.98125e+06
-2.97013e+06
-2.95279e+06
-2.91431e+06
-2.90762e+06
-2.88706e+06
-2.83694e+06
-2.82564e+06
-2.7079e+06
-2.68724e+06
-2.68534e+06
-2.68474e+06
-2.65819e+06
-2.60637e+06
-2.60518e+06
-2.595e+06
-2.58585e+06
-2.55144e+06
-2.53421e+06
-2.53071e+06
-2.50803e+06
-2.49575e+06
-2.43673e+06
-2.42392e+06
-2.36187e+06
-2.35155e+06
-2.26147e+06
-2.25874e+06
-2.19472e+06
-2.13316e+06
-2.127e+06
-2.09267e+06
-2.05277e+06
-2.03828e+06
-2.01344e+06
-1.99499e+06
-1.98054e+06
-1.9738e+06
-1.9569e+06
-1.95534e+06
-1.90205e+06
-1.89641e+06
-1.86859e+06
-1.85008e+06
-1.84178e+06
-1.81792e+06
-1.73541e+06
-1.72503e+06
-1.69757e+06
-1.68915e+06
-1.62424e+06
-1.60491e+06
-1.60156e+06
-1.60121e+06
-1.56071e+06
-1.54224e+06
-1.48956e+06
-1.4791e+06
-1.47853e+06
-1.46697e+06
-1.46592e+06
-1.46176e+06
-1.45335e+06
-1.44012e+06
-1.39861e+06
-1.39307e+06
-1.37755e+06
-1.37406e+06
-1.36765e+06
-1.36446e+06
-1.32551e+06
-1.32327e+06
-1.2995e+06
-1.29914e+06
-1.28266e+06
-1.26635e+06
-1.26126e+06
-1.25695e+06
-1.2455e+06
-1.23888e+06
-1.21267e+06
-1.1935e+06
-1.16278e+06
-1.14866e+06
-1.13784e+06
-1.10495e+06
-1.06856e+06
-1.06309e+06
-1.05285e+06
-1.0353e+06
-1.01635e+06
-1.00688e+06
-1.003e+06
-986302
-983782
-983360
-979611
-978886
-969312
-968249
-967995
-956493
-933424
-932727
-930149
-908666
-901044
-883680
-883133
-869842
-859000
-858863
-849933
-818188
-817341
-786897
-777352
-775976
-765722
-758033
-736912
-725537
-706200
-703061
-696801
-692073
-687089
-686397
-682886
-667369
-665649
-654641
-647867
-631439
-629838
-621272
-620307
-610698
-602659
-602465
-589362
-575117
-569515
-561911
-558707
-555784
-542447
-537958
-532606
-525952
-511508
-506235
-500245
-475045
-472593
-472214
-472041
-464575
-460780
-456770
-454715
-454445
-449122
-447125
-446486
-436601
-435392
-428290
-411153
-404682
-391963
-391629
-391259
-389898
-385751
-383959
-372174
-364822
-362348
-360161
-357902
-357531
-338111
-337002
-336156
-326755
-326041
-321215
-312902
-306878
-303330
-302227
-301090
-297056
-296310
-295367
-295182
-295076
-293638
-293506
-290434
-289967
-288718
-287260
-285711
-281891
-281728
-280277
-273362
-267243
-260986
-259848
-259311
-253102
-251279
-247770
-247666
-247377
-247198
-246513
-242153
-241701
-239759
-230699
-230076
-229860
-228153
-222240
-220101
-218188
-217888
-214262
-201250
-199412
-199061
-194245
-193733
-190412
-189245
-187231
-186426
-185828
-183720
-178393
-178294
-177923
-177628
-171256
-171057
-170490
-170122
-168634
-164987
-164346
-163392
-161743
-161073
-160015
-159139
-157890
-157254
-152604
-152500
-152172
-151738
-151134
-149922
-146193
-143712
-142137
-141511
-140715
-138992
-137265
-134670
-132136
-131831
-131403
-131168
-131095
-127879
-125706
-125109
-125016
-124625
-124384
-123757
-123049
-122943
-122136
-121748
-120909
-118858
-117222
-116785
-116281
-116060
-115924
-115409
-114315
-114245
-112112
-108837
-108383
-108234
-107400
-104630
-104549
-103219
-101415
-101237
-100469
-100406
-99671.2
-97823
-97302.4
-97177.1
-96922.2
-94441.5
-93920.9
-92839
-91978.6
-89488.4
-87722.1
-87543.8
-87276.9
-87186.4
-86754.8
-86593.4
-85258.2
-84729
-84647.4
-84436.5
-83582.6
-83495
-83156
-82853.5
-82231.5
-81696.6
-81284
-81137.7
-80959.8
-80238.6
-80224.2
-80012.2
-78870.5
-78477.9
-78043.2
-76156.9
-75228.2
-74947.4
-74302.3
-74116.1
-72830.9
-72630.1
-72477
-71785.2
-71639.8
-71114.6
-70258.4
-69836.8
-68766.3
-68588
-68052.8
-66940
-66939.9
-66575.5
-66058.1
-65719
-64881.7
-64829.1
-63894.1
-63611.7
-63160.8
-62166.7
-61967.9
-61948.8
-61943.4
-61187.4
-60373.3
-60108
-59731
-59676.9
-59106.2
-59068.5
-58858.6
-58672
-58585
-58410.7
-58191.3
-56910.5
-56586.9
-56448.7
-55854.9
-55792.8
-55690.1
-55471.9
-55016
-54454.2
-54450.5
-53182.4
-52958.1
-52916.3
-52552.1
-51857.8
-51796.9
-50963.7
-50756.5
-50719.6
-50254.9
-50051.5
-49842.5
-49469.6
-49278.6
-49126.3
-48478.3
-48374.6
-48060.8
-48043
-47747.5
-46669.9
-46630.9
-45767.2
-45651.3
-45446.6
-45134.4
-44911.5
-43946
-42654.6
-42316.9
-42141.9
-41997.4
-40932.9
-40456.8
-39855
-39838
-39673.1
-39310.6
-39208.2
-39141.2
-39078.4
-38722.6
-38345.7
-38299.8
-37699.1
-37204.6
-36930.8
-36860.9
-36265.2
-35950.8
-35609.7
-35594.4
-35512.6
-35277.2
-34999.6
-34927.2
-34735.6
-34716.7
-34583.3
-34575.3
-34574
-34570.2
-34411.8
-33791.6
-33319.3
-33286.5
-33050.7
-32939.9
-32621.9
-32507.9
-32370.1
-32102.5
-31814.4
-31631
-31593.2
-31363.6
-30873.6
-30767.6
-30751.4
-30591.9
-30182.4
-29987.6
-29965.9
-29709.7
-29569.5
-29539.4
-29454.5
-29283.2
-29005.7
-28641.8
-28340.5
-28080.8
-27817.4
-27771.4
-27652.6
-27425.9
-27366.4
-27269.2
-27107.6
-26662.6
-26565.4
-26464.6
-26340.5
-26172.8
-26103.1
-25657.2
-25600.7
-25386.5
-25157.2
-24897.1
-24791.7
-24730.8
-24706.6
-24706.3
-24480.5
-24276.2
-23939.2
-23874.3
-23669.2
-23455.8
-23376.5
-23023.8
-22465.7
-22450.9
-22383.1
-22368
-21801.5
-21779.5
-21685.9
-21207.1
-20837.7
-20446.5
-20293.6
-19986.2
-19878.6
-19804.8
-19711.5
-19643.7
-19596
-19377.4
-19323.5
-19067.7
-18998.5
-18791.1
-18681.2
-18557.9
-18525.5
-18466.7
-18461.3
-18398.5
-18028.8
-17910.4
-17715
-17634.3
-17417.7
-17265.4
-17209.2
-16943.6
-16753.1
-16721.5
-16568.2
-16533.3
-16358.6
-16178.8
-16169.2
-15892.6
-15872.6
-15846.1
-15799.3
-15730.5
-15674.5
-15562
-15394.5
-15387
-15350.2
-15190.8
-15171.2
-15014.8
-14881.5
-14848.3
-14762.8
-14743.3
-14699
-14554.3
-14460.3
-14387.4
-14306.1
-14135.2
-14119.9
-14019.3
-13966.7
-13818.2
-13789.8
-13620.6
-13591.3
-13453.1
-13431.3
-13325.2
-13314.1
-13251.7
-13019.4
-12901.9
-12758.5
-12680
-12667.3
-12640.9
-12445.7
-12319.8
-12309.1
-12259.1
-12151.1
-11934.5
-11899.1
-11832.3
-11758.2
-11705.6
-11634.2
-11518.3
-11513.2
-11491.1
-11435.1
-11339
-11212.5
-11169.1
-11110.5
-11066.5
-10929.2
-10853.7
-10832.2
-10802.7
-10781.4
-10781.3
-10780.4
-10710.7
-10707.2
-10664.9
-10663.1
-10633.6
-10501.7
-10474.7
-10471.7
-10429.4
-10392.4
-10261.4
-10240.5
-10162.4
-10154.2
-10144.6
-10119.1
-10108.2
-10047.7
-10043.6
-9989.35
-9923.7
-9899.71
-9892.77
-9879.31
-9485.94
-9479.26
-9374.27
-9282.58
-9220.91
-9161.12
-9013.36
-8961.35
-8870.78
-8851.5
-8829.35
-8772.3
-8676.24
-8629.97
-8580.79
-8289.9
-8168.42
-8037.99
-8029.06
-7992.44
-7937.79
-7888.51
-7832.85
-7752.29
-7750
-7748.12
-7717.08
-7573.75
-7555.87
-7523.9
-7500.61
-7404.46
-7398.08
-7395.02
-7333.6
-7323.05
-7290.07
-7283.36
-7249.78
-7246.42
-7182.3
-7165.73
-7091.04
-7069.03
-6954.58
-6820.2
-6784.77
-6733.73
-6691.59
-6662.39
-6631.25
-6526.4
-6515.14
-6512.38
-6417.52
-6414.93
-6407.23
-6400.04
-6338.06
-6276.74
-6172.81
-6097.34
-6082.74
-6062.75
-6002.24
-5998.92
-5988.66
-5988.62
-5977.36
-5881.09
-5812.49
-5810.98
-5774.66
-5754.26
-5732.13
-5708.43
-5693.41
-5533.46
-5528.99
-5434.74
-5419.48
-5398.92
-5381.44
-5380.76
-5337.5
-5327
-5298.58
-5293.84
-5280.73
-5222.26
-5169.96
-5032.08
-4966.06
-4925.97
-4912.3
-4893.81
-4889.52
-4784.75
-4766.16
-4683.64
-4660.71
-4594.67
-4592.7
-4583.19
-4533.7
-4485.06
-4463.58
-4453.42
-4423.52
-4390.09
-4374.01
-4329.34
-4312.71
-4284.75
-4274.17
-4258.77
-4253.64
-4235.37
-4228.88
-4228.83
-4215.75
-4184.31
-4158.42
-4153.18
-4152.64
-4145.29
-4125.83
-4102.13
-4082.49
-3987.48
-3986.96
-3975.12
-3966.3
-3958.82
-3941.37
-3932.91
-3929.08
-3896.66
-3888.85
-3884.05
-3871.1
-3857.41
-3795.04
-3758.65
-3744.86
-3730.46
-3728.58
-3669.39
-3650.95
-3620
-3609.76
-3587.3
-3580.99
-3554.77
-3551.7
-3514.69
-3485.31
-3457.75
-3445.57
-3428.63
-3416.87
-3401.28
-3394.78
-3376.6
-3365.55
-3355.64
-3333.74
-3324
-3247.73
-3229.02
-3210.97
-3152.39
-3126.16
-3123.4
-3109.15
-3108.67
-3078.22
-3057.76
-3045.46
-3037.8
-3037.61
-3026.62
-2979.7
-2958.11
-2937.36
-2919.74
-2909.64
-2873.33
-2871.39
-2867.98
-2867
-2864.85
-2854.65
-2820.52
-2785.14
-2779.65
-2765.53
-2762.64
-2728.4
-2725.89
-2724.05
-2722.58
-2684.34
-2598.7
-2598.26
-2598.02
-2592.81
-2569.89
-2522.74
-2514.96
-2514.31
-2509.07
-2496.87
-2490.15
-2439.6
-2430.14
-2412.5
-2407.63
-2371.28
-2370.25
-2366.41
-2358.17
-2355.95
-2330.31
-2313.93
-2298.12
-2293.91
-2273.34
-2273.15
-2269.45
-2267.21
-2258.24
-2256.94
-2254.69
-2246.41
-2229.68
-2210.11
-2192.09
-2157.83
-2147.74
-2142.14
-2142.1
-2141.22
-2135.31
-2134.44
-2130.73
-2116.5
-2110.79
-2110.42
-2100.97
-2082.09
-2080.34
-2079.84
-2066.18
-2054
-2048.71
-2041.41
-2028.68
-2025.65
-2019.86
-2015.83
-2012.94
-2004.71
-1998.96
-1974.05
-1968.4
-1967.73
-1960.73
-1950.74
-1942.56
-1934.76
-1934.38
-1930.38
-1917.53
-1916.42
-1899.48
-1894.36
-1856.74
-1852.33
-1846.31
-1824.32
-1821.69
-1818.82
-1817.83
-1813.62
-1803.06
-1781.47
-1780.88
-1773.31
-1735.2
-1726.92
-1718.16
-1666.85
-1653.93
-1649.52
-1644.48
-1640.33
-1631.97
-1631.3
-1622.52
-1616.4
-1614.05
-1596.29
-1589.54
-1584.63
-1574.5
-1572.75
-1569.91
-1566.26
-1552.78
-1546.68
-1532.32
-1532.2
-1528.51
-1526.94
-1524.6
-1523.08
-1522.35
-1490.95
-1477.52
-1477.28
-1464.52
-1463.55
-1462.03
-1445.33
-1441.56
-1441.36
-1436.95
-1417.6
-1415.17
-1409.78
-1406.65
-1397.89
-1394.32
-1381.13
-1377.54
-1375.6
-1373.74
-1359.41
-1358.74
-1352.74
-1347.9
-1347.07
-1336.05
-1335.97
-1335.12
-1326.8
-1310.87
-1309.27
-1270.91
-1267.76
-1266.11
-1263.83
-1250.54
-1246.16
-1244.21
-1232.55
-1225.35
-1221.63
-1219.7
-1215.62
-1207.63
-1207.18
-1201.96
-1196.2
-1190.36
-1189.91
-1180.84
-1175.56
-1175.17
-1161.03
-1147.49
-1144.76
-1133.15
-1131.61
-1128.15
-1115.44
-1112.64
-1106.65
-1098.05
-1096.71
-1081.86
-1070.29
-1050.23
-1041.09
-1040.98
-1035.85
-1030.72
-1030.39
-1025.28
-1022.97
-1009.32
-1003.23
-999.485
-997.405
-991.117
-984.583
-984.336
-982.938
-979.885
-976.601
-971.711
-969.447
-966.434
-959.297
-947.341
-945.42
-943.003
-939.85
-939.43
-921.292
-919.314
-917.16
-909.692
-909.414
-906.589
-905.876
-905.63
-903.791
-899.698
-895.189
-894.046
-891.747
-890.085
-889.522
-885.184
-881.725
-876.733
-874.979
-874.787
-872.62
-870.211
-864.877
-858.622
-853.772
-845.904
-845.568
-843.711
-842.85
-839.993
-830.845
-828.006
-827.936
-826.876
-821.136
-820.245
-819.781
-811.185
-810.123
-808.426
-805.325
-801.337
-797.491
-795.421
-791.308
-789.276
-776.017
-760.003
-754.572
-754.262
-751.137
-747.116
-746.619
-745.574
-744.13
-741.583
-734.618
-727.588
-727.578
-720.505
-715.045
-713.64
-711.225
-709.145
-707.004
-703.303
-698.745
-690.761
-689.18
-686.239
-683.646
-681.288
-679.872
-678.361
-669.134
-668.789
-668.419
-666.517
-663.875
-663.516
-663.274
-657.749
-654.918
-654.01
-651.719
-647.132
-646.162
-645.297
-641.824
-641.087
-638.12
-631.065
-620.131
-616.875
-616.272
-615.782
-609.693
-606.109
-605.51
-600.519
-595.967
-593.775
-590.908
-589.271
-589.241
-587.69
-583.759
-581.12
-580.215
-571.842
-570.619
-568.832
-568.07
-567.188
-564.453
-561.936
-557.99
-555.336
-548.462
-548.449
-548.09
-547.541
-546
-543.997
-542.691
-541.633
-538.906
-537.433
-534.823
-529.614
-528.063
-527.47
-524.015
-523.159
-522.873
-520.31
-518.092
-518.018
-517.643
-517.238
-511.518
-509.534
-508.624
-507.496
-506.489
-505.804
-505.303
-503.716
-498.728
-498.372
-495.787
-493.848
-491.484
-488.801
-488.2
-487.444
-487.278
-485.884
-483.933
-482.004
-480.291
-479.02
-478.173
-477.627
-475.443
-470.408
-470.339
-470.333
-468.506
-467.472
-465.218
-464.974
-460.527
-460.426
-455.581
-455.392
-453.611
-450.344
-447.369
-446.206
-443.67
-438.857
-434.935
-434.125
-432.872
-429.737
-429.549
-428.52
-427.302
-425.203
-424.289
-413.33
-409.167
-409.077
-399.675
-398.869
-398.527
-396.104
-394.94
-394.029
-391.975
-391.039
-390.542
-390.061
-384.973
-384.8
-382.527
-379.559
-378.672
-377.875
-373.429
-372.982
-372.219
-371.856
-370.663
-369.905
-369.633
-368.347
-367.306
-365.726
-364.528
-364.443
-364.23
-361.961
-361.708
-357.559
-347.511
-345.232
-343.463
-340.436
-339.739
-339.033
-338.386
-337.466
-337.32
-336.798
-334.979
-333.491
-332.502
-332.242
-331.13
-329.036
-327.112
-325.785
-323.727
-323.577
-323.53
-323.112
-322.448
-321.439
-321.283
-320.902
-319.33
-319.109
-315.115
-311.98
-309.417
-306.867
-306.698
-306.406
-305.267
-304.897
-304.424
-303.76
-302.034
-300.691
-300.161
-295.796
-294.999
-293.612
-293.579
-292.828
-292.735
-288.69
-288.157
-285.076
-283.79
-283.447
-283.444
-282.827
-279.349
-278.99
-278.625
-277.877
-277.379
-275.967
-270.703
-270.63
-270.05
-269.854
-269.464
-265.163
-262.04
-260.57
-258.85
-257.535
-254.528
-253.299
-252.469
-249.426
-246.198
-246.193
-244.423
-243.365
-241.331
-240.755
-240.256
-239.749
-239.617
-238.297
-238.199
-235.915
-235.857
-234.754
-233.305
-233.262
-229.79
-225.852
-222.089
-220.289
-219.221
-218.551
-215.334
-212.904
-211.634
-211.116
-210.031
-209.737
-208.422
-207.45
-207.01
-206.095
-205.217
-203.968
-202.678
-202.344
-201.824
-201.128
-200.992
-199.135
-198.306
-196.963
-195.843
-195.56
-194.437
-194.021
-192.882
-191.207
-188.494
-187.747
-186.132
-184.718
-183.495
-182.922
-180.463
-179.961
-179.762
-177.866
-176.531
-176.497
-176.084
-175.592
-173.941
-172.507
-171.396
-171.382
-170.836
-169.089
-168.551
-168.363
-168.188
-167.81
-167.393
-166.047
-165.091
-164.708
-164.527
-164.162
-160.737
-160.446
-160.399
-160.337
-158.759
-158.609
-158.074
-157.834
-157.81
-157.65
-157.489
-157.078
-156.159
-154.83
-154.595
-153.397
-153.114
-152.874
-152.808
-152.642
-152.595
-151.705
-151.211
-150.761
-148.416
-147.325
-146.829
-144.003
-143.308
-143.177
-140.038
-139.841
-139.024
-138.839
-138.155
-138.086
-136.43
-136.281
-135.828
-135.483
-135.335
-134.19
-134.121
-133.862
-133.787
-133.602
-133.57
-133.307
-130.956
-129.775
-129.742
-129.038
-128.98
-128.857
-128.439
-127.202
-126.971
-125.797
-124.108
-123.992
-123.686
-122.923
-122.394
-121.647
-120.334
-120.012
-119.375
-118.588
-118.587
-117.294
-117.218
-116.544
-115.313
-115.211
-115.011
-114.753
-112.661
-112.336
-111.918
-111.728
-110.94
-110.27
-109.154
-108.908
-108.565
-107.975
-107.188
-107.165
-107.024
-106.827
-106.593
-106.335
-105.976
-105.931
-105.305
-101.372
-101.284
-100.417
-99.2713
-99.1497
-98.9001
-98.6853
-98.5182
-98.2959
-97.283
-95.653
-95.181
-94.7822
-94.1109
-93.864
-93.5575
-93.539
-93.129
-93.0991
-92.6931
-91.9827
-91.9723
-91.8365
-91.0393
-90.93
-90.868
-90.0575
-89.292
-89.121
-87.6535
-86.6008
-86.563
-86.3869
-86.3226
-85.7546
-85.3776
-84.3278
-83.7279
-83.1183
-82.1936
-81.8847
-81.8192
-80.8863
-79.353
-79.0997
-78.912
-78.6812
-76.6574
-74.7162
-74.282
-73.5287
-73.2691
-72.8707
-72.0555
-71.3353
-71.3211
-71.2561
-70.9302
-70.7875
-70.5981
-70.0207
-69.5703
-69.5425
-69.1252
-69.0665
-67.0864
-66.9041
-64.8163
-64.0173
-63.8191
-62.5335
-62.3156
-62.0182
-61.9062
-61.4355
-61.225
-61.0022
-60.6394
-60.1796
-59.8819
-59.6155
-59.1141
-58.6603
-58.4649
-57.7951
-57.6202
-57.6064
-57.5536
-57.2888
-57.2234
-57.1707
-57.1292
-55.5395
-54.9036
-53.7044
-53.3875
-53.3354
-51.7362
-51.6773
-51.2108
-51.0853
-50.5635
-49.9259
-49.2071
-48.7586
-48.3552
-48.1644
-48.1436
-47.6875
-47.2215
-46.4214
-46.3591
-45.2665
-44.8831
-44.3829
-43.6654
-43.5269
-43.3982
-42.5508
-41.5006
-41.3093
-41.0762
-39.9784
-39.2153
-38.4024
-38.2607
-37.9238
-37.289
-36.7619
-36.4356
-36.2551
-34.4127
-34.2834
-33.9261
-33.625
-33.3602
-33.0557
-32.6703
-32.4454
-31.9857
-30.8073
-30.2984
-29.928
-29.4139
-29.012
-28.6912
-28.1848
-26.488
-26.0026
-25.6716
-25.4227
-24.9058
-24.2218
-23.9219
-23.8139
-23.4161
-23.2701
-23.0253
-22.3595
-22.2666
-21.8134
-21.41
-21.1866
-20.9016
-20.8258
-19.8468
-19.6608
-19.1914
-18.9904
-17.6558
-17.2088
-17.2033
-16.9985
-16.9236
-16.4227
-16.3237
-16.2379
-15.4899
-14.9132
-14.8394
-14.7717
-14.2123
-13.7037
-13.2387
-12.776
-12.5707
-12.3918
-12.1408
-11.8176
-11.7439
-11.5693
-11.1693
-10.6841
-10.6167
-10.5362
-9.68129
-9.10105
-9.0615
-9.05962
-8.60489
-8.50514
-8.1493
-8.13809
-8.138
-7.73754
-7.70965
-7.34548
-6.73201
-6.51644
-6.47547
-6.11473
-5.79312
-5.69203
-5.02194
-4.93954
-4.72914
-4.41775
-4.10284
-3.63398
-3.41498
-3.03314
-2.96512
-2.92973
-2.13255
-1.20778
-0.965798
-0.75301
-0.0233315
0.0583119
0.586711
1.15245
1.51104
2.18006
2.61865
2.80431
3.07532
3.41948
3.73018
3.85352
4.01411
4.30635
4.53491
5.27778
5.3302
5.3325
5.89707
6.37673
6.38764
7.29328
7.31519
7.97413
8.15734
8.42933
8.59751
8.66146
8.67976
8.98058
9.09964
9.1064
9.3869
9.58518
9.64558
9.68399
10.02
10.5611
11.0817
11.3268
11.3371
11.3965
11.4047
11.435
11.8249
12.3603
12.4282
12.5126
12.6129
12.7111
12.9089
13.3342
13.5732
13.6259
13.6679
14.0856
14.1218
14.0906
14.1748
14.2213
14.2768
14.3791
14.5344
14.5692
14.7826
14.8929
15.2203
15.2806
15.4087
15.825
15.8375
15.8537
16.2764
16.3377
16.529
16.7251
16.8282
17.6004
17.9271
17.9352
18.4502
18.6446
18.6777
18.8248
18.8721
18.8782
18.9087
19.6424
19.6764
19.693
19.8406
20.1287
20.3795
20.4187
20.6182
20.8237
20.9006
21.0754
21.1516
21.1919
21.2622
21.8154
21.8446
22.189
22.4708
22.5528
22.97
23.0915
23.1808
23.2399
23.3809
23.4141
23.5168
24.0615
24.1428
24.4877
24.6441
24.7285
24.8629
24.931
24.9941
25.0587
25.1029
25.2003
25.5155
25.5474
25.5631
26.0994
26.3418
26.414
26.5845
26.6291
27.4847
27.7593
27.8002
28.0126
28.2154
28.2472
28.4566
28.4813
28.5517
28.5685
28.603
28.8316
29.2793
29.4752
29.7826
29.8492
29.9691
30.0382
30.5122
30.738
30.815
31.311
32.3836
32.5985
32.7459
32.7144
32.9249
32.9941
33.0287
33.0776
33.0804
33.1229
33.243
33.2505
33.5064
33.5221
33.6559
33.8655
34.0816
34.1291
34.2616
34.2945
34.346
34.4197
34.5366
34.6043
34.939
35.0157
35.0611
35.1297
35.1352
35.5889
35.6147
35.7102
35.8027
35.8822
35.9477
36.0135
36.3225
36.6303
36.6614
36.821
36.8848
36.9302
36.9531
37.5994
37.639
37.6498
37.7182
37.7813
37.9154
37.9541
38.2621
38.298
38.3722
38.4161
38.4584
38.6478
38.6828
38.7649
39.1073
39.1365
39.3679
39.6661
39.7033
39.9054
39.9391
40.0027
40.1145
40.1696
40.1761
40.1839
40.453
40.5017
40.6205
40.6384
40.6572
40.752
40.9735
41.2
41.2591
41.3286
41.3558
41.4549
41.5002
41.649
41.6561
41.7833
41.8546
41.8901
41.9628
41.9891
42.1463
42.4457
42.5405
42.5953
42.5954
42.6707
42.8091
42.9189
43.0311
43.0621
43.1262
43.204
43.2842
43.2014
43.2137
43.4609
43.5027
43.5159
43.6191
43.6446
43.748
43.7722
43.7867
43.793
44.0718
44.3064
44.3592
44.3616
44.5978
44.6202
44.6443
44.842
44.8426
44.9442
45.045
45.1897
45.1984
45.2088
45.3534
45.4069
45.4377
45.4837
45.5045
45.592
45.6101
45.7346
45.8169
45.9038
46.0578
46.1645
46.2467
46.3219
46.3518
46.3589
46.7132
46.7988
46.8855
46.9564
46.9824
47.0727
47.0998
47.391
47.4168
47.5433
47.5802
47.727
47.8793
47.9523
48.1481
48.1849
48.2478
48.4034
48.6541
48.7521
48.961
49.0085
49.0512
49.0715
49.1024
49.1166
49.156
49.1579
49.1913
49.2815
49.4056
49.4074
49.4951
49.5182
49.5485
49.5605
49.5653
49.5743
49.6298
49.6575
49.7715
49.8982
49.9012
50.0184
50.0382
50.0484
50.0899
50.2268
50.5638
50.6736
51.0241
51.0794
51.0991
51.2029
51.2426
51.2552
51.3519
51.3704
51.4023
51.3482
51.375
51.4059
51.5695
52.0011
52.0367
52.0754
52.1091
52.1203
52.265
52.3251
52.3315
52.3977
52.6718
52.694
52.773
52.7743
52.9019
52.9207
52.9621
53.1822
53.3376
53.3611
53.5143
53.6335
53.7822
53.8674
53.9103
53.965
54.1157
54.2776
54.2797
54.3034
54.3056
54.6892
54.8752
54.9097
54.9478
55.0031
55.0457
55.0487
55.0799
55.087
55.1149
55.1277
55.1755
55.2149
55.3582
55.4314
55.4356
55.446
55.5421
55.6052
55.6068
55.6137
55.7254
55.7461
55.7493
55.7658
55.7874
55.8194
55.8735
55.9168
55.9348
55.952
56.1391
56.143
56.1438
56.1676
56.3197
56.3325
56.3889
56.4307
56.4387
56.5047
56.5233
56.5661
56.5803
56.6028
56.6449
56.6711
56.7141
56.8401
56.8513
56.8836
56.8889
56.9537
56.9688
57.0407
57.0632
57.1531
57.1888
57.2844
57.3469
57.4002
57.508
57.5902
57.6213
57.6353
57.8102
57.7421
57.7739
57.7973
57.8365
57.9217
57.9324
57.9595
58.0297
58.1178
58.1357
58.1602
58.3345
58.4464
58.4586
58.4639
58.5263
58.5762
58.6852
58.6946
58.7092
58.7388
58.7963
58.8565
58.8688
58.8772
58.883
58.9199
58.9369
58.9767
58.9929
59.3074
59.3113
59.3179
59.3647
59.4006
59.4165
59.4396
59.4612
59.5458
59.5744
59.5855
59.6528
59.6801
59.6953
59.7186
59.7747
59.7961
59.8208
59.918
59.9628
60.0173
60.0642
60.1749
60.1801
60.1846
60.2867
60.2868
60.2885
60.305
60.3456
60.3523
60.392
60.4481
60.4514
60.4662
60.4697
60.5102
60.5688
60.5699
60.6186
60.6293
60.7172
60.7392
60.7687
60.7772
60.8809
60.9657
61.0151
61.019
61.1376
61.1965
61.2166
61.2932
61.3747
61.3973
61.4174
61.4757
61.4914
61.574
61.5804
61.586
61.6143
61.6325
61.6633
61.6927
61.7736
61.7931
61.808
61.9517
62.069
61.9652
61.9899
62.0079
62.1374
62.1903
62.278
62.3076
62.3827
62.4242
62.4556
62.5264
62.5583
62.6125
62.6423
62.65
62.6597
62.6665
62.7567
62.7694
62.797
62.8453
62.8495
62.8665
62.8856
62.9248
62.9296
62.9752
63.0093
63.0396
63.046
63.0949
63.0949
63.095
63.1543
63.2063
63.248
63.2873
63.2976
63.3044
63.3066
63.318
63.366
63.4022
63.4157
63.7058
63.7391
63.8333
63.8647
63.8969
63.9319
63.939
63.9428
63.9497
64.0025
64.0496
64.0689
64.0729
64.1451
64.1712
64.1749
64.2028
64.2206
64.2749
64.2969
64.3025
64.3382
64.4193
64.4685
64.4964
64.6295
64.7019
64.7702
64.8944
64.916
64.9376
64.9564
65.0797
65.0891
65.0917
65.1062
65.1085
65.1088
65.1412
65.2045
65.2175
65.2445
65.2743
65.2885
65.2981
65.3223
65.3537
65.3548
65.3725
65.471
65.521
65.5572
65.5944
65.7112
65.7647
65.795
65.6952
65.7984
65.8154
65.8355
65.8904
65.896
65.9076
65.9078
65.9432
65.9445
65.9909
66.0305
66.0739
66.0774
66.0831
66.1138
66.1696
66.1897
66.1934
66.2021
66.2176
66.2404
66.2484
66.2879
66.2926
66.2945
66.3473
66.3943
66.4049
66.4439
66.5056
66.5347
66.5563
66.5723
66.5971
66.6074
66.642
66.6709
66.6811
66.7064
66.7205
66.7262
66.8266
66.8744
66.9495
66.9977
67.0061
67.0271
67.032
67.0674
67.0835
67.085
67.0851
67.0942
67.1209
67.1577
67.1707
67.2129
67.2171
67.3313
67.3944
67.4209
67.4858
67.4933
67.494
67.5373
67.5508
67.5622
67.5843
67.6116
67.6901
67.7003
67.71
67.7459
67.7497
67.7739
67.8192
67.8286
67.831
67.8888
67.8913
67.8949
67.9084
67.9233
67.9459
67.9572
68.0098
68.0235
68.0418
68.0511
68.0732
68.1456
68.1579
68.1897
68.1975
68.2037
68.2101
68.3577
68.3629
68.3798
68.3069
68.3149
68.3372
68.3491
68.3639
68.4083
68.4421
68.4425
68.4452
68.4479
68.452
68.472
68.4817
68.5058
68.5365
68.5429
68.5613
68.5705
68.573
68.5836
68.5922
68.6074
68.6084
68.6181
68.6374
68.6507
68.6633
68.6759
68.6813
68.6917
68.6995
68.7082
68.7564
68.7695
68.7812
68.837
68.8637
68.8754
68.8815
68.8846
68.8925
68.9725
68.9834
69.0073
69.0507
69.0663
69.0829
69.1092
69.111
69.1251
69.1429
69.1437
69.1693
69.1728
69.1906
69.2058
69.2212
69.2219
69.224
69.2299
69.2457
69.2525
69.2708
69.2773
69.3464
69.3509
69.3676
69.3893
69.3944
69.4111
69.4115
69.4205
69.4398
69.451
69.4791
69.4854
69.5159
69.5207
69.5417
69.55
69.5842
69.6015
69.6164
69.6205
69.6235
69.6298
69.6626
69.6818
69.6848
69.6897
69.7133
69.7142
69.718
69.7255
69.7463
69.7528
69.7544
69.7883
69.8019
69.8178
69.7357
69.7432
69.7817
69.7921
69.7943
69.826
69.8498
69.8571
69.8667
69.8727
69.8811
69.8829
69.8859
69.9118
69.913
69.9439
69.9481
69.9606
69.9895
69.998
70.001
70.0133
70.0416
70.0598
70.0703
70.1314
70.1852
70.187
70.1984
70.2031
70.2133
70.2289
70.2385
70.2474
70.2571
70.2802
70.2925
70.3074
70.3253
70.3263
70.3517
70.3533
70.3711
70.4011
70.404
70.4175
70.4213
70.4234
70.4303
70.4328
70.4374
70.4383
70.4572
70.461
70.4802
70.485
70.4977
70.4982
70.5027
70.5465
70.5626
70.57
70.5844
70.5996
70.6063
70.613
70.6216
70.6416
70.6506
70.7153
70.7821
70.79
70.7902
70.7999
70.8104
70.8189
70.8387
70.8572
70.9078
70.9146
70.9153
70.9771
70.9907
71.0005
71.0269
71.0408
71.046
71.0471
71.0926
71.1114
71.1365
71.1466
71.1614
71.186
71.19
71.1995
71.2319
71.2347
71.248
71.2553
71.1757
71.1783
71.1842
71.1877
71.2026
71.2078
71.2125
71.2404
71.2414
71.247
71.2535
71.2578
71.2593
71.2617
71.2758
71.2916
71.3018
71.314
71.3624
71.3766
71.3787
71.3826
71.3902
71.4407
71.4456
71.4476
71.4476
71.4498
71.4525
71.4526
71.458
71.4634
71.4677
71.4693
71.4833
71.4907
71.4944
71.4947
71.501
71.5021
71.512
71.5161
71.518
71.522
71.5227
71.5236
71.5248
71.5271
71.537
71.5402
71.5496
71.5524
71.5632
71.5659
71.5708
71.5708
71.5738
71.5793
71.5804
71.5817
71.5865
71.5902
71.5966
71.5982
71.6061
71.6083
71.6102
71.6138
71.6228
71.6229
71.6263
71.635
71.6363
71.6371
71.6383
71.6413
71.6449
71.6457
71.6558
71.6581
71.6611
71.6649
71.665
71.6651
71.67
71.6705
71.6715
71.6855
71.6886
71.6994
71.7008
71.7034
71.7077
71.7146
71.7268
71.7329
71.7348
71.7363
71.7452
71.7475
71.6435
71.6446
71.646
71.6484
71.65
71.6536
71.6543
71.6562
71.6572
71.6576
71.6583
71.6588
71.6686
71.6758
71.6823
71.6989
71.7013
71.7035
71.7055
71.7072
71.708
71.7102
71.7142
71.716
71.7239
71.7321
71.7344
71.7345
71.7398
71.7415
71.7467
71.7473
71.7531
71.7577
71.76
71.7621
71.7639
71.7679
71.768
71.7771
71.778
71.7853
71.786
71.7885
71.7893
71.7903
71.7967
71.802
71.805
71.8103
71.8132
71.8148
71.8155
71.8199
71.8246
71.8298
71.8333
71.8362
71.8418
71.8422
71.8473
71.857
71.8575
71.8596
71.8652
71.8667
71.8677
71.8679
71.8681
71.87
71.8758
71.8838
71.8844
71.8874
71.8915
71.896
71.8986
71.9035
71.9061
71.9089
71.9156
71.9204
71.9255
71.9318
71.9337
71.9388
71.9404
71.9498
71.9507
71.955
71.9585
71.9625
71.9651
71.9677
71.9747
71.9748
71.9819
71.9854
71.9875
71.9879
71.8866
71.8867
71.8868
71.8899
71.892
71.8969
71.9017
71.903
71.9062
71.9099
71.9137
71.9141
71.9147
71.9211
71.9244
71.925
71.9259
71.9272
71.9336
71.9397
71.9406
71.9479
71.9581
71.9609
71.9628
71.9639
71.9702
71.9722
71.9729
71.9771
71.978
71.9804
71.9817
71.982
71.9822
71.9862
71.9891
71.9954
71.9964
72.0011
72.0018
72.004
72.0056
72.0069
72.0085
72.0087
72.013
72.0139
72.0176
72.0201
72.0202
72.0248
72.0259
72.0301
72.0367
72.0379
72.0414
72.0443
72.0444
72.0455
72.0467
72.0493
72.0502
72.0504
72.0506
72.0552
72.0628
72.0653
72.0667
72.0694
72.0764
72.0806
72.0811
72.087
72.0932
72.0941
72.0958
72.1015
72.1076
72.1088
72.1175
72.1216
72.1259
72.1267
72.1274
72.1289
72.1293
72.1309
72.1377
72.1397
72.1406
72.1444
72.1504
72.1583
72.1609
72.1614
72.1633
72.1638
72.1657
72.168
72.0645
72.0664
72.0707
72.0708
72.073
72.0743
72.0767
72.0796
72.0902
72.0934
72.096
72.0993
72.1022
72.1062
72.1113
72.1143
72.1155
72.1221
72.1225
72.1251
72.1265
72.1274
72.1285
72.1318
72.132
72.1359
72.1369
72.1391
72.1428
72.1442
72.1451
72.1506
72.1528
72.1532
72.1558
72.1567
72.157
72.1583
72.1603
72.1605
72.1642
72.1648
72.1654
72.1699
72.1723
72.1726
72.1765
72.1819
72.1824
72.1863
72.187
72.1922
72.1973
72.1989
72.1997
72.2017
72.2022
72.2026
72.2087
72.2093
72.2135
72.22
72.2231
72.2259
72.2265
72.2345
72.2365
72.2367
72.2416
72.2436
72.2598
72.2627
72.2654
72.2672
72.2689
72.2718
72.2741
72.2748
72.2756
72.277
72.2783
72.2786
72.2806
72.2837
72.2863
72.2866
72.2888
72.2894
72.2927
72.3009
72.3017
72.3023
72.3064
72.3087
72.3095
72.3096
72.3153
72.3191
72.3212
72.3228
72.2187
72.2188
72.2212
72.2228
72.2254
72.227
72.2281
72.2312
72.2312
72.233
72.2332
72.2332
72.2337
72.2345
72.2366
72.2369
72.2406
72.241
72.2443
72.2449
72.2465
72.2468
72.2481
72.2488
72.2516
72.2522
72.254
72.2541
72.2558
72.2575
72.2597
72.2599
72.2615
72.2635
72.2637
72.2641
72.2643
72.2666
72.2677
72.2697
72.2708
72.2725
72.2742
72.275
72.2759
72.278
72.279
72.2799
72.2817
72.2852
72.2861
72.2864
72.2871
72.2874
72.2882
72.289
72.2891
72.2902
72.2914
72.2933
72.2958
72.2984
72.2995
72.3101
72.3104
72.3109
72.3155
72.3172
72.3204
72.3208
72.3232
72.3259
72.3268
72.3293
72.3299
72.3325
72.336
72.3361
72.3369
72.3378
72.3411
72.3423
72.3426
72.3437
72.3454
72.3454
72.3482
72.3505
72.3568
72.3583
72.3594
72.3597
72.3608
72.3616
72.3641
72.365
72.3653
72.3658
72.366
72.369
72.2641
72.2661
72.2678
72.2728
72.2735
72.274
72.2749
72.277
72.2778
72.2791
72.2797
72.2798
72.2816
72.2856
72.2894
72.2917
72.2918
72.2955
72.2965
72.2984
72.3002
72.3065
72.3068
72.3087
72.3093
72.3122
72.3132
72.314
72.3195
72.3243
72.3255
72.3274
72.329
72.3294
72.3294
72.334
72.3343
72.3363
72.337
72.3383
72.3384
72.3396
72.3424
72.3468
72.348
72.3494
72.3518
72.3529
72.3539
72.354
72.3543
72.355
72.3573
72.3588
72.3592
72.3622
72.3637
72.3661
72.3664
72.3673
72.3711
72.3725
72.375
72.3758
72.3795
72.3813
72.3815
72.3818
72.3825
72.3837
72.3855
72.3874
72.389
72.3897
72.3916
72.392
72.3932
72.3936
72.3936
72.3946
72.3954
72.3979
72.4008
72.4034
72.4046
72.4083
72.4103
72.4113
72.4119
72.4149
72.4168
72.4181
72.4182
72.4193
72.4197
72.4216
72.4233
72.4237
72.4239
72.4244
72.3204
72.3208
72.3229
72.3252
72.3269
72.3292
72.3296
72.3304
72.3324
72.3327
72.333
72.3333
72.3336
72.3376
72.3392
72.3404
72.3404
72.3472
72.3473
72.3499
72.3502
72.3502
72.3503
72.3525
72.3549
72.3553
72.3561
72.357
72.3582
72.3588
72.3592
72.3596
72.3607
72.3617
72.3634
72.3636
72.3643
72.3686
72.3698
72.3728
72.3728
72.3743
72.3755
72.3814
72.3832
72.3833
72.3837
72.3841
72.3883
72.3905
72.3907
72.3929
72.3937
72.3958
72.3961
72.3995
72.3999
72.4005
72.4009
72.4011
72.4033
72.4037
72.4042
72.4044
72.4065
72.4068
72.4078
72.4097
72.4109
72.4109
72.4112
72.4117
72.4122
72.4126
72.4171
72.4172
72.4179
72.4183
72.421
72.4213
72.4225
72.4225
72.4229
72.423
72.423
72.423
72.4231
72.4251
72.4253
72.4257
72.4259
72.4266
72.4278
72.4286
72.4298
72.4302
72.4309
72.4321
72.4327
72.4343
72.3301
72.3301
72.3305
72.3315
72.3323
72.3338
72.3339
72.3409
72.3411
72.3416
72.3417
72.3432
72.3441
72.3462
72.3467
72.3483
72.3489
72.3504
72.3523
72.3529
72.3541
72.3551
72.3561
72.3565
72.3584
72.3599
72.3601
72.3608
72.3617
72.3619
72.3631
72.3635
72.3652
72.3672
72.3709
72.3711
72.3721
72.373
72.3738
72.3748
72.3749
72.3752
72.3761
72.3763
72.3774
72.3781
72.3811
72.3816
72.3816
72.3846
72.3855
72.3861
72.3862
72.3886
72.3891
72.3892
72.3892
72.39
72.3913
72.3941
72.3959
72.3969
72.4
72.4026
72.4027
72.4033
72.4035
72.4037
72.4037
72.4068
72.4081
72.4097
72.4098
72.4118
72.4129
72.4151
72.4158
72.4165
72.4173
72.4214
72.422
72.4225
72.4242
72.426
72.4271
72.4276
72.4287
72.4292
72.4295
72.43
72.4331
72.4335
72.4348
72.435
72.4366
72.4373
72.4378
72.4378
72.438
72.4401
72.3351
72.3355
72.3358
72.3372
72.3376
72.3376
72.338
72.339
72.3404
72.3404
72.3419
72.3423
72.3432
72.3432
72.344
72.3442
72.3454
72.3462
72.3466
72.3466
72.3468
72.3474
72.3488
72.3503
72.3544
72.3549
72.3557
72.358
72.3593
72.3594
72.36
72.3606
72.3609
72.3618
72.3629
72.3632
72.3633
72.3639
72.3641
72.3649
72.3656
72.3657
72.3662
72.3688
72.3696
72.37
72.3716
72.3726
72.3727
72.3729
72.3733
72.3736
72.3737
72.3737
72.3747
72.3749
72.3749
72.377
72.3772
72.3774
72.3787
72.3793
72.3795
72.3796
72.3798
72.38
72.3817
72.3818
72.3826
72.3834
72.3836
72.3842
72.3846
72.3852
72.3861
72.3865
72.3875
72.3888
72.3889
72.3894
72.3895
72.3907
72.3917
72.3926
72.3934
72.3943
72.3944
72.3952
72.3955
72.396
72.3964
72.3968
72.3985
72.3993
72.3997
72.4003
72.4015
72.4016
72.4047
72.406
72.3015
72.3021
72.3023
72.3025
72.304
72.3049
72.3063
72.3066
72.3076
72.3087
72.3089
72.3093
72.3094
72.3126
72.3128
72.3134
72.3152
72.3156
72.3168
72.3185
72.319
72.3192
72.3207
72.3219
72.322
72.3222
72.3226
72.326
72.3266
72.3269
72.3286
72.3304
72.3304
72.3312
72.3322
72.3323
72.3331
72.3346
72.3359
72.336
72.3372
72.3379
72.3379
72.3387
72.3391
72.3408
72.3411
72.3418
72.3421
72.3426
72.3431
72.3435
72.3461
72.3462
72.3463
72.3463
72.3467
72.347
72.3483
72.3488
72.3501
72.3507
72.3508
72.3515
72.3516
72.3516
72.3531
72.3532
72.3539
72.3548
72.356
72.3564
72.3566
72.3572
72.3581
72.3592
72.3611
72.3612
72.3619
72.3623
72.3629
72.3633
72.3633
72.3649
72.3651
72.3654
72.3657
72.3676
72.3677
72.3681
72.3682
72.37
72.3703
72.3723
72.373
72.3737
72.3749
72.3751
72.3758
72.3762
72.2715
72.2715
72.2723
72.2724
72.2728
72.273
72.2734
72.2735
72.2746
72.2747
72.2748
72.2749
72.275
72.2756
72.2758
72.2763
72.2771
72.2777
72.2786
72.2796
72.28
72.2815
72.284
72.2855
72.2865
72.2866
72.2874
72.2875
72.2876
72.288
72.289
72.2892
72.29
72.2903
72.2905
72.2907
72.2908
72.2908
72.2909
72.2909
72.2911
72.2912
72.2919
72.2928
72.293
72.2937
72.2937
72.2937
72.2945
72.2946
72.2953
72.2954
72.2956
72.2956
72.2958
72.2967
72.298
72.298
72.2981
72.2985
72.2988
72.2988
72.2991
72.2991
72.2994
72.2996
72.3007
72.301
72.3011
72.3013
72.3024
72.3027
72.3032
72.3032
72.3044
72.3045
72.3051
72.3063
72.3064
72.3067
72.3082
72.3093
72.3104
72.3108
72.3123
72.3132
72.3135
72.3136
72.3137
72.3139
72.3141
72.3143
72.3146
72.3165
72.3167
72.317
72.3182
72.3188
72.319
72.3196
72.2157
72.2165
72.2165
72.2167
72.218
72.2185
72.2188
72.2194
72.2194
72.2199
72.2212
72.2215
72.2218
72.222
72.2227
72.2228
72.2236
72.2243
72.2255
72.2258
72.2261
72.2262
72.228
72.2286
72.2294
72.2297
72.2297
72.2298
72.2298
72.2298
72.2299
72.2306
72.2326
72.2336
72.2348
72.2377
72.2379
72.2381
72.239
72.2406
72.2406
72.2424
72.2425
72.2429
72.2435
72.2436
72.2439
72.2446
72.2448
72.2449
72.2453
72.2453
72.2455
72.2457
72.2458
72.2462
72.2468
72.2473
72.2473
72.2473
72.2474
72.2474
72.2476
72.2476
72.2477
72.2485
72.2488
72.2497
72.2499
72.2507
72.251
72.251
72.2513
72.2521
72.2532
72.2535
72.254
72.2541
72.2543
72.2548
72.2552
72.2567
72.2571
72.2573
72.2573
72.2575
72.2577
72.2578
72.2583
72.2586
72.259
72.2596
72.2597
72.2599
72.2601
72.2602
72.2606
72.2608
72.2609
72.261
72.1558
72.1559
72.1559
72.1563
72.1575
72.1577
72.1589
72.1589
72.159
72.159
72.1595
72.1596
72.1598
72.1602
72.1603
72.1605
72.1611
72.1627
72.1635
72.1638
72.1642
72.1644
72.1656
72.1656
72.1659
72.166
72.1662
72.1664
72.1673
72.1673
72.1674
72.1674
72.1676
72.1677
72.1681
72.1681
72.1683
72.1685
72.1686
72.1687
72.17
72.1711
72.1712
72.1718
72.1726
72.1735
72.1735
72.1736
72.1738
72.1739
72.1747
72.175
72.1751
72.1755
72.1757
72.1768
72.177
72.1776
72.1781
72.1787
72.1787
72.1787
72.1789
72.1791
72.1793
72.1795
72.1799
72.1804
72.1806
72.1811
72.1812
72.1812
72.1821
72.1824
72.1826
72.1838
72.1842
72.1845
72.1845
72.1846
72.1849
72.1851
72.1852
72.186
72.1862
72.1862
72.1863
72.1863
72.1874
72.1875
72.1879
72.1884
72.1893
72.1895
72.1901
72.1901
72.1904
72.1908
72.1913
72.1917
72.0864
72.0866
72.0868
72.0869
72.0872
72.0874
72.0875
72.0878
72.0879
72.0881
72.0887
72.0888
72.089
72.089
72.0891
72.0893
72.0895
72.0899
72.0905
72.0909
72.0914
72.0915
72.0916
72.0917
72.0919
72.092
72.0922
72.0924
72.0931
72.0933
72.0934
72.0935
72.0939
72.0939
72.0942
72.0943
72.0952
72.0953
72.0953
72.0955
72.0957
72.0958
72.0966
72.0967
72.0968
72.0968
72.097
72.0971
72.0976
72.0979
72.098
72.0984
72.0989
72.0993
72.0993
72.0993
72.0995
72.0999
72.1
72.1001
72.1002
72.1004
72.1004
72.1004
72.1006
72.1007
72.1011
72.1016
72.1021
72.1021
72.1025
72.1025
72.1029
72.1032
72.1032
72.1035
72.1037
72.1038
72.1042
72.1045
72.1046
72.1049
72.105
72.1051
72.1054
72.1057
72.1058
72.1059
72.106
72.1061
72.1065
72.1066
72.1075
72.1076
72.1084
72.1087
72.1088
72.1088
72.1089
72.1094
72.0042
72.0047
72.0048
72.0052
72.0056
72.0058
72.0058
72.0059
72.006
72.0064
72.0065
72.0067
72.0068
72.0069
72.0071
72.0072
72.0075
72.0077
72.0077
72.0077
72.0078
72.0079
72.0083
72.0084
72.0085
72.0086
72.0087
72.0087
72.009
72.009
72.0091
72.0096
72.0114
72.0115
72.0118
72.0119
72.012
72.0124
72.0126
72.0131
72.0132
72.0133
72.0136
72.014
72.014
72.0141
72.0142
72.0143
72.0144
72.015
72.0151
72.0154
72.0156
72.0158
72.0162
72.0168
72.0169
72.0173
72.0175
72.0177
72.0177
72.0178
72.018
72.0188
72.019
72.019
72.0193
72.0193
72.0193
72.0197
72.0199
72.0201
72.0201
72.0202
72.0202
72.0205
72.0206
72.0206
72.0208
72.0208
72.0209
72.0215
72.0217
72.022
72.0222
72.0224
72.0225
72.0228
72.0232
72.0232
72.0233
72.0233
72.0234
72.0235
72.0238
72.024
72.024
72.024
72.0241
72.0248
71.9197
71.9197
71.92
71.9202
71.9203
71.9205
71.9207
71.9209
71.9214
71.9215
71.9217
71.9221
71.9222
71.9222
71.9227
71.9228
71.923
71.923
71.923
71.923
71.9231
71.9231
71.9232
71.9232
71.9232
71.9232
71.9234
71.9235
71.9235
71.9238
71.9238
71.924
71.9241
71.9241
71.9245
71.9245
71.9246
71.9247
71.9248
71.9249
71.925
71.9251
71.9254
71.9255
71.9261
71.9263
71.9265
71.9265
71.9269
71.9271
71.9273
71.9275
71.9276
71.9278
71.9279
71.9283
71.9285
71.9286
71.929
71.929
71.9291
71.9295
71.9296
71.9296
71.9298
71.93
71.9304
71.9308
71.9311
71.9311
71.9313
71.9313
71.9316
71.9316
71.9317
71.9317
71.9319
71.9319
71.9322
71.9324
71.9326
71.9328
71.9328
71.9336
71.9337
71.934
71.9341
71.9342
71.9342
71.9344
71.9344
71.9344
71.9347
71.9349
71.9352
71.9354
71.9358
71.9359
71.9361
71.9361
71.8312
71.8313
71.8315
71.8316
71.8317
71.8317
71.8317
71.8319
71.832
71.8321
71.8321
71.8322
71.8324
71.8325
71.833
71.833
71.8331
71.8331
71.8332
71.8333
71.8333
71.8334
71.8337
71.8339
71.8339
71.834
71.8341
71.8341
71.8342
71.8343
71.8345
71.8348
71.8349
71.8351
71.8353
71.8354
71.8354
71.8354
71.8356
71.8356
71.8357
71.8358
71.8359
71.836
71.8364
71.8365
71.8368
71.837
71.837
71.8372
71.8372
71.8372
71.8373
71.8373
71.8374
71.8376
71.8377
71.8378
71.8378
71.8379
71.838
71.8382
71.8383
71.8383
71.8387
71.8387
71.8388
71.839
71.839
71.8391
71.8392
71.8393
71.8394
71.8398
71.8399
71.8399
71.8401
71.8402
71.8403
71.8404
71.8404
71.8405
71.8406
71.8407
71.8407
71.8408
71.8409
71.8412
71.8412
71.8412
71.8416
71.8417
71.8418
71.8418
71.8419
71.8423
71.8426
71.8427
71.8427
71.843
71.7377
71.7379
71.738
71.738
71.7381
71.7382
71.7382
71.7383
71.7384
71.7385
71.7385
71.7386
71.7387
71.7387
71.739
71.7392
71.7393
71.7394
71.7395
71.7395
71.7398
71.74
71.74
71.7401
71.7403
71.7403
71.7403
71.7406
71.7406
71.7407
71.741
71.741
71.7411
71.7411
71.7412
71.7412
71.7412
71.7414
71.7415
71.7415
71.7416
71.7416
71.7417
71.7417
71.7417
71.7418
71.7418
71.7421
71.7422
71.7422
71.7423
71.7424
71.7424
71.7425
71.7425
71.7426
71.7426
71.7427
71.7428
71.7428
71.7429
71.7431
71.7431
71.7433
71.7433
71.7433
71.7433
71.7434
71.7435
71.7436
71.7437
71.7443
71.7444
71.7445
71.7449
71.7452
71.7455
71.7459
71.7459
71.7461
71.7462
71.7466
71.7466
71.7467
71.747
71.747
71.747
71.7471
71.7472
71.7474
71.7475
71.7475
71.7476
71.7478
71.7478
71.7481
71.7482
71.7483
71.7483
71.7485
71.6433
71.6433
71.6433
71.6435
71.6436
71.6438
71.6438
71.6438
71.6438
71.6439
71.644
71.644
71.644
71.6442
71.6443
71.6443
71.6443
71.6443
71.6443
71.6444
71.6445
71.6446
71.6447
71.6448
71.6448
71.6449
71.6449
71.6449
71.6451
71.6452
71.6452
71.6454
71.6454
71.6454
71.6454
71.6455
71.6456
71.6457
71.6457
71.6457
71.6458
71.6458
71.6459
71.6459
71.6461
71.6461
71.6461
71.6463
71.6463
71.6463
71.6463
71.6463
71.6465
71.6465
71.6465
71.6466
71.6466
71.6467
71.6468
71.6468
71.6468
71.6468
71.6469
71.647
71.6472
71.6472
71.6472
71.6472
71.6472
71.6472
71.6474
71.6475
71.6475
71.6476
71.6476
71.6478
71.6478
71.6479
71.6479
71.648
71.6481
71.6481
71.6482
71.6482
71.6484
71.6485
71.6487
71.6487
71.6487
71.6489
71.6489
71.6489
71.649
71.649
71.6491
71.6492
71.6492
71.6492
71.6492
71.6492
71.5441
71.5443
71.5443
71.5446
71.5446
71.5448
71.5448
71.5449
71.5449
71.5449
71.545
71.5451
71.5451
71.5452
71.5452
71.5452
71.5452
71.5453
71.5453
71.5453
71.5453
71.5454
71.5454
71.5454
71.5455
71.5455
71.5455
71.5456
71.5457
71.5457
71.5457
71.5458
71.546
71.546
71.5461
71.5462
71.5462
71.5463
71.5463
71.5463
71.5464
71.5464
71.5466
71.5466
71.5467
71.5467
71.5468
71.5469
71.5469
71.547
71.547
71.5471
71.5472
71.5472
71.5472
71.5474
71.5474
71.5474
71.5474
71.5475
71.5476
71.5476
71.5477
71.5477
71.5478
71.5478
71.5478
71.5479
71.5479
71.548
71.548
71.548
71.5481
71.5481
71.5481
71.5482
71.5482
71.5482
71.5483
71.5484
71.5484
71.5484
71.5485
71.5485
71.5485
71.5486
71.5486
71.5486
71.5487
71.5487
71.5488
71.5489
71.549
71.549
71.549
71.5491
71.5491
71.5492
71.5492
71.5494
71.4442
71.4444
71.4444
71.4446
71.4446
71.4447
71.4449
71.4449
71.4449
71.445
71.445
71.445
71.445
71.4451
71.4451
71.4452
71.4453
71.4453
71.4454
71.4454
71.4454
71.4454
71.4454
71.4455
71.4456
71.4456
71.4456
71.4456
71.4458
71.4459
71.4459
71.446
71.4461
71.4462
71.4462
71.4463
71.4464
71.4465
71.4466
71.4466
71.4466
71.4467
71.4467
71.4468
71.4468
71.4469
71.4469
71.447
71.447
71.447
71.4471
71.4471
71.4471
71.4472
71.4472
71.4472
71.4472
71.4472
71.4474
71.4475
71.4476
71.4477
71.4478
71.4478
71.4479
71.4479
71.448
71.4481
71.4482
71.4482
71.4482
71.4483
71.4484
71.4484
71.4484
71.4484
71.4484
71.4485
71.4485
71.4485
71.4486
71.4486
71.4487
71.4489
71.4489
71.4489
71.449
71.4491
71.4491
71.4491
71.4492
71.4492
71.4492
71.4492
71.4492
71.4492
71.4493
71.4493
71.4494
71.4495
71.3443
71.3444
71.3444
71.3444
71.3444
71.3444
71.3445
71.3445
71.3445
71.3446
71.3447
71.3447
71.3447
71.3448
71.3448
71.3448
71.3448
71.3448
71.3449
71.345
71.345
71.345
71.345
71.3451
71.3451
71.3451
71.3451
71.3452
71.3452
71.3452
71.3453
71.3454
71.3454
71.3454
71.3455
71.3455
71.3455
71.3456
71.3456
71.3456
71.3456
71.3457
71.3457
71.3458
71.3458
71.3458
71.3458
71.3459
71.3459
71.3459
71.3459
71.346
71.346
71.3461
71.3461
71.3461
71.3461
71.3462
71.3462
71.3462
71.3462
71.3462
71.3462
71.3463
71.3463
71.3463
71.3463
71.3465
71.3465
71.3465
71.3465
71.3465
71.3466
71.3466
71.3466
71.3467
71.3467
71.3467
71.3468
71.3468
71.3468
71.3468
71.3469
71.347
71.347
71.347
71.347
71.3472
71.3472
71.3472
71.3472
71.3473
71.3473
71.3473
71.3474
71.3475
71.3475
71.3475
71.3475
71.3476
71.2424
71.2424
71.2424
71.2424
71.2425
71.2425
71.2426
71.2426
71.2426
71.2426
71.2427
71.2427
71.2427
71.2428
71.2428
71.2428
71.2429
71.2429
71.2429
71.2429
71.2429
71.243
71.243
71.2431
71.2431
71.2431
71.2431
71.2432
71.2433
71.2433
71.2433
71.2433
71.2433
71.2433
71.2433
71.2433
71.2434
71.2435
71.2435
71.2435
71.2436
71.2436
71.2436
71.2437
71.2437
71.2437
71.2437
71.2437
71.2437
71.2437
71.2438
71.2438
71.2438
71.2438
71.2438
71.2439
71.2439
71.2439
71.244
71.244
71.244
71.2442
71.2442
71.2442
71.2442
71.2443
71.2444
71.2444
71.2444
71.2444
71.2445
71.2445
71.2445
71.2445
71.2445
71.2445
71.2445
71.2446
71.2446
71.2446
71.2446
71.2446
71.2447
71.2447
71.2448
71.2448
71.2448
71.2448
71.2448
71.2449
71.2449
71.2449
71.2449
71.245
71.2451
71.2451
71.2451
71.2451
71.2452
71.2452
71.14
71.14
71.14
71.14
71.14
71.1401
71.1401
71.1401
71.1402
71.1402
71.1402
71.1402
71.1402
71.1403
71.1403
71.1403
71.1403
71.1403
71.1403
71.1403
71.1403
71.1404
71.1404
71.1404
71.1404
71.1405
71.1405
71.1405
71.1406
71.1406
71.1406
71.1406
71.1406
71.1406
71.1407
71.1407
71.1408
71.1408
71.1408
71.1408
71.1408
71.1408
71.1409
71.1409
71.1409
71.1409
71.1409
71.1409
71.1409
71.1409
71.1409
71.1409
71.141
71.141
71.141
71.141
71.141
71.141
71.1411
71.1411
71.1411
71.1411
71.1411
71.1411
71.1411
71.1411
71.1413
71.1413
71.1413
71.1413
71.1413
71.1413
71.1414
71.1414
71.1414
71.1414
71.1414
71.1414
71.1415
71.1415
71.1415
71.1415
71.1416
71.1416
71.1416
71.1417
71.1417
71.1417
71.1417
71.1418
71.1418
71.1419
71.1419
71.1419
71.1419
71.142
71.142
71.142
71.142
71.142
71.0368
71.0368
71.0368
71.0368
71.0369
71.0369
71.0369
71.0369
71.0369
71.0369
71.0369
71.037
71.037
71.037
71.037
71.037
71.037
71.0371
71.0371
71.0371
71.0371
71.0371
71.0371
71.0372
71.0372
71.0372
71.0372
71.0373
71.0373
71.0374
71.0374
71.0374
71.0374
71.0374
71.0375
71.0375
71.0375
71.0375
71.0375
71.0375
71.0375
71.0375
71.0376
71.0376
71.0376
71.0376
71.0376
71.0376
71.0376
71.0376
71.0377
71.0377
71.0377
71.0377
71.0377
71.0377
71.0377
71.0377
71.0377
71.0377
71.0377
71.0377
71.0378
71.0378
71.0378
71.0378
71.0378
71.0379
71.0379
71.0379
71.0379
71.0379
71.0379
71.0379
71.0379
71.0379
71.038
71.038
71.038
71.038
71.038
71.038
71.038
71.0381
71.0381
71.0381
71.0381
71.0381
71.0381
71.0382
71.0382
71.0382
71.0382
71.0383
71.0383
71.0383
71.0383
71.0383
71.0383
71.0383
70.9331
70.9331
70.9331
70.9331
70.9331
70.9331
70.9331
70.9332
70.9332
70.9332
70.9333
70.9333
70.9333
70.9333
70.9333
70.9333
70.9333
70.9333
70.9334
70.9334
70.9334
70.9334
70.9334
70.9334
70.9334
70.9335
70.9335
70.9335
70.9335
70.9335
70.9335
70.9335
70.9335
70.9336
70.9336
70.9336
70.9336
70.9336
70.9336
70.9337
70.9337
70.9337
70.9337
70.9337
70.9337
70.9338
70.9338
70.9338
70.9338
70.9338
70.9338
70.9338
70.9339
70.9339
70.9339
70.9339
70.934
70.934
70.934
70.934
70.934
70.934
70.934
70.934
70.934
70.9341
70.9341
70.9342
70.9342
70.9342
70.9342
70.9342
70.9342
70.9342
70.9342
70.9342
70.9342
70.9343
70.9343
70.9343
70.9343
70.9343
70.9343
70.9343
70.9344
70.9344
70.9344
70.9344
70.9344
70.9345
70.9345
70.9345
70.9346
70.9346
70.9346
70.9346
70.9346
70.9346
70.9346
70.9346
70.8294
70.8294
70.8294
70.8294
70.8294
70.8294
70.8295
70.8295
70.8295
70.8295
70.8295
70.8295
70.8295
70.8295
70.8295
70.8295
70.8295
70.8295
70.8295
70.8295
70.8296
70.8296
70.8296
70.8296
70.8297
70.8297
70.8297
70.8297
70.8297
70.8297
70.8297
70.8297
70.8298
70.8298
70.8298
70.8298
70.8298
70.8298
70.8298
70.8298
70.8298
70.8298
70.8299
70.8299
70.8299
70.8299
70.8299
70.8299
70.8299
70.8299
70.8299
70.83
70.83
70.83
70.83
70.83
70.83
70.83
70.83
70.83
70.83
70.83
70.83
70.83
70.83
70.83
70.8301
70.8301
70.8301
70.8301
70.8301
70.8301
70.8301
70.8301
70.8301
70.8301
70.8302
70.8302
70.8302
70.8302
70.8302
70.8302
70.8302
70.8302
70.8302
70.8302
70.8303
70.8303
70.8303
70.8303
70.8303
70.8303
70.8303
70.8303
70.8303
70.8303
70.8303
70.8304
70.8304
70.8304
70.7251
70.7251
70.7251
70.7251
70.7252
70.7252
70.7252
70.7252
70.7252
70.7252
70.7252
70.7253
70.7253
70.7253
70.7253
70.7253
70.7253
70.7253
70.7253
70.7253
70.7253
70.7253
70.7253
70.7253
70.7253
70.7253
70.7254
70.7254
70.7254
70.7254
70.7254
70.7254
70.7254
70.7254
70.7254
70.7254
70.7254
70.7255
70.7255
70.7255
70.7255
70.7255
70.7255
70.7255
70.7255
70.7255
70.7255
70.7255
70.7255
70.7256
70.7256
70.7256
70.7256
70.7256
70.7256
70.7256
70.7256
70.7256
70.7256
70.7256
70.7256
70.7257
70.7257
70.7257
70.7257
70.7257
70.7257
70.7257
70.7257
70.7257
70.7257
70.7257
70.7257
70.7257
70.7258
70.7258
70.7258
70.7258
70.7258
70.7258
70.7258
70.7258
70.7258
70.7259
70.7259
70.7259
70.7259
70.7259
70.7259
70.7259
70.7259
70.7259
70.7259
70.7259
70.7259
70.7259
70.7259
70.7259
70.7259
70.726
70.6207
70.6207
70.6207
70.6207
70.6207
70.6207
70.6208
70.6208
70.6208
70.6208
70.6208
70.6208
70.6208
70.6208
70.6208
70.6208
70.6208
70.6208
70.6208
70.6208
70.6208
70.6208
70.6208
70.6208
70.6208
70.6209
70.6209
70.6209
70.6209
70.6209
70.6209
70.6209
70.6209
70.6209
70.6209
70.6209
70.621
70.621
70.621
70.621
70.621
70.621
70.621
70.621
70.621
70.621
70.621
70.621
70.621
70.621
70.621
70.621
70.621
70.621
70.621
70.621
70.6211
70.6211
70.6211
70.6211
70.6211
70.6211
70.6211
70.6211
70.6211
70.6211
70.6211
70.6211
70.6212
70.6212
70.6212
70.6212
70.6212
70.6212
70.6212
70.6212
70.6212
70.6212
70.6212
70.6212
70.6212
70.6212
70.6212
70.6212
70.6212
70.6212
70.6212
70.6213
70.6213
70.6213
70.6213
70.6213
70.6213
70.6213
70.6213
70.6213
70.6213
70.6213
70.6213
70.6213
70.5161
70.5161
70.5161
70.5161
70.5161
70.5161
70.5161
70.5161
70.5161
70.5161
70.5161
70.5161
70.5161
70.5161
70.5161
70.5161
70.5161
70.5161
70.5162
70.5162
70.5162
70.5162
70.5162
70.5162
70.5162
70.5162
70.5162
70.5162
70.5162
70.5162
70.5162
70.5162
70.5162
70.5162
70.5162
70.5162
70.5162
70.5162
70.5162
70.5162
70.5162
70.5162
70.5163
70.5163
70.5163
70.5163
70.5163
70.5163
70.5163
70.5163
70.5163
70.5163
70.5163
70.5163
70.5163
70.5163
70.5163
70.5163
70.5163
70.5163
70.5163
70.5163
70.5164
70.5164
70.5164
70.5164
70.5164
70.5164
70.5164
70.5164
70.5164
70.5164
70.5164
70.5164
70.5164
70.5164
70.5164
70.5164
70.5164
70.5164
70.5164
70.5164
70.5164
70.5164
70.5164
70.5164
70.5165
70.5165
70.5165
70.5165
70.5165
70.5165
70.5165
70.5165
70.5165
70.5165
70.5165
70.5165
70.5165
70.5165
70.4113
70.4113
70.4113
70.4113
70.4113
70.4113
70.4113
70.4113
70.4113
70.4113
70.4113
70.4113
70.4113
70.4113
70.4113
70.4113
70.4113
70.4113
70.4113
70.4113
70.4113
70.4113
70.4113
70.4113
70.4113
70.4113
70.4113
70.4113
70.4113
70.4113
70.4114
70.4114
70.4114
70.4114
70.4114
70.4114
70.4114
70.4114
70.4114
70.4114
70.4114
70.4114
70.4114
70.4114
70.4114
70.4114
70.4114
70.4114
70.4114
70.4114
70.4114
70.4114
70.4114
70.4114
70.4114
70.4114
70.4114
70.4114
70.4114
70.4115
70.4115
70.4115
70.4115
70.4115
70.4115
70.4115
70.4115
70.4115
70.4115
70.4115
70.4115
70.4115
70.4115
70.4115
70.4115
70.4115
70.4115
70.4115
70.4116
70.4116
70.4116
70.4116
70.4116
70.4116
70.4116
70.4116
70.4116
70.4116
70.4116
70.4116
70.4116
70.4116
70.4116
70.4116
70.4116
70.4116
70.4116
70.4116
70.4116
70.4116
70.3064
70.3064
70.3064
70.3064
70.3064
70.3064
70.3064
70.3064
70.3064
70.3064
70.3064
70.3064
70.3064
70.3064
70.3064
70.3064
70.3064
70.3064
70.3064
70.3064
70.3064
70.3064
70.3064
70.3064
70.3064
70.3065
70.3065
70.3065
70.3065
70.3065
70.3065
70.3065
70.3065
70.3065
70.3065
70.3065
70.3065
70.3065
70.3065
70.3065
70.3065
70.3065
70.3065
70.3065
70.3065
70.3065
70.3065
70.3065
70.3065
70.3065
70.3065
70.3065
70.3065
70.3065
70.3065
70.3065
70.3065
70.3065
70.3065
70.3065
70.3065
70.3066
70.3066
70.3066
70.3066
70.3066
70.3066
70.3066
70.3066
70.3066
70.3066
70.3066
70.3066
70.3066
70.3066
70.3066
70.3066
70.3066
70.3066
70.3066
70.3066
70.3066
70.3066
70.3066
70.3066
70.3066
70.3066
70.3066
70.3066
70.3066
70.3066
70.3066
70.3066
70.3066
70.3066
70.3066
70.3066
70.3066
70.3066
70.3066
70.2014
70.2014
70.2014
70.2014
70.2014
70.2014
70.2014
70.2014
70.2014
70.2014
70.2014
70.2014
70.2014
70.2014
70.2014
70.2014
70.2014
70.2014
70.2014
70.2014
70.2014
70.2014
70.2014
70.2014
70.2014
70.2014
70.2014
70.2014
70.2014
70.2014
70.2014
70.2014
70.2015
70.2015
70.2015
70.2015
70.2015
70.2015
70.2015
70.2015
70.2015
70.2015
70.2015
70.2015
70.2015
70.2015
70.2015
70.2015
70.2015
70.2015
70.2015
70.2015
70.2015
70.2015
70.2015
70.2015
70.2015
70.2015
70.2015
70.2015
70.2015
70.2015
70.2015
70.2015
70.2015
70.2015
70.2015
70.2015
70.2015
70.2015
70.2015
70.2016
70.2016
70.2016
70.2016
70.2016
70.2016
70.2016
70.2016
70.2016
70.2016
70.2016
70.2016
70.2016
70.2016
70.2016
70.2016
70.2016
70.2016
70.2016
70.2016
70.2016
70.2016
70.2016
70.2016
70.2016
70.2016
70.2016
70.2016
70.2016
70.0963
70.0963
70.0963
70.0963
70.0964
70.0964
70.0964
70.0964
70.0964
70.0964
70.0964
70.0964
70.0964
70.0964
70.0964
70.0964
70.0964
70.0964
70.0964
70.0964
70.0964
70.0964
70.0964
70.0964
70.0964
70.0964
70.0964
70.0964
70.0964
70.0964
70.0964
70.0964
70.0964
70.0964
70.0964
70.0964
70.0964
70.0964
70.0964
70.0964
70.0964
70.0964
70.0964
70.0964
70.0964
70.0964
70.0964
70.0964
70.0964
70.0964
70.0964
70.0964
70.0964
70.0964
70.0964
70.0964
70.0964
70.0964
70.0964
70.0964
70.0964
70.0964
70.0964
70.0965
70.0965
70.0965
70.0965
70.0965
70.0965
70.0965
70.0965
70.0965
70.0965
70.0965
70.0965
70.0965
70.0965
70.0965
70.0965
70.0965
70.0965
70.0965
70.0965
70.0965
70.0965
70.0965
70.0965
70.0965
70.0965
70.0965
70.0965
70.0965
70.0965
70.0965
70.0965
70.0965
70.0965
70.0965
70.0965
70.0965
69.9912
69.9912
69.9912
69.9912
69.9913
69.9913
69.9913
69.9913
69.9913
69.9913
69.9913
69.9913
69.9913
69.9913
69.9913
69.9913
69.9913
69.9913
69.9913
69.9913
69.9913
69.9913
69.9913
69.9913
69.9913
69.9913
69.9913
69.9913
69.9913
69.9913
69.9913
69.9913
69.9913
69.9913
69.9913
69.9913
69.9913
69.9913
69.9913
69.9913
69.9913
69.9913
69.9913
69.9913
69.9913
69.9913
69.9913
69.9913
69.9913
69.9913
69.9913
69.9913
69.9913
69.9913
69.9913
69.9913
69.9913
69.9913
69.9913
69.9913
69.9913
69.9913
69.9913
69.9913
69.9913
69.9913
69.9913
69.9913
69.9913
69.9913
69.9913
69.9913
69.9913
69.9913
69.9913
69.9913
69.9913
69.9913
69.9913
69.9913
69.9913
69.9913
69.9913
69.9913
69.9913
69.9913
69.9913
69.9913
69.9913
69.9913
69.9913
69.9913
69.9913
69.9913
69.9913
69.9913
69.9913
69.9913
69.9913
69.9913
69.8861
69.8861
69.8861
69.8861
69.8861
69.8861
69.8861
69.8861
69.8861
69.8861
69.8861
69.8861
69.8861
69.8861
69.8861
69.8861
69.8861
69.8861
69.8861
69.8861
69.8861
69.8861
69.8861
69.8861
69.8861
69.8861
69.8861
69.8861
69.8861
69.8861
69.8861
69.8861
69.8861
69.8861
69.8861
69.8861
69.8861
69.8861
69.8861
69.8861
69.8861
69.8861
69.8861
69.8861
69.8861
69.8861
69.8861
69.8861
69.8861
69.8861
69.8861
69.8861
69.8861
69.8861
69.8861
69.8861
69.8861
69.8861
69.8861
69.8861
69.8861
69.8861
69.8861
69.8861
69.8861
69.8861
69.8861
69.8861
69.8861
69.8861
69.8861
69.8861
69.8861
69.8861
69.8861
69.8861
69.8861
69.8861
69.8861
69.8861
69.8861
69.8861
69.8861
69.8861
69.8861
69.8861
69.8861
69.8861
69.8861
69.8861
69.8861
69.8861
69.8861
69.8862
69.8862
69.8862
69.8862
69.8862
69.8862
69.8862
69.7809
69.7809
69.7809
69.7809
69.7809
69.7809
69.7809
69.7809
69.7809
69.7809
69.7809
69.7809
69.7809
69.7809
69.7809
69.7809
69.7809
69.7809
69.7809
69.7809
69.7809
69.7809
69.7809
69.7809
69.7809
69.7809
69.7809
69.7809
69.7809
69.7809
69.7809
69.7809
69.7809
69.7809
69.7809
69.7809
69.7809
69.7809
69.7809
69.7809
69.7809
69.7809
69.7809
69.7809
69.7809
69.7809
69.7809
69.7809
69.7809
69.7809
69.7809
69.7809
69.7809
69.7809
69.7809
69.7809
69.7809
69.7809
69.7809
69.7809
69.7809
69.7809
69.7809
69.7809
69.7809
69.7809
69.7809
69.7809
69.7809
69.7809
69.7809
69.7809
69.7809
69.7809
69.7809
69.7809
69.7809
69.7809
69.7809
69.7809
69.7809
69.7809
69.7809
69.7809
69.7809
69.7809
69.7809
69.7809
69.7809
69.7809
69.7809
69.7809
69.7809
69.7809
69.7809
69.7809
69.7809
69.7809
69.7809
69.7809
69.6757
69.6757
69.6757
69.6757
69.6757
69.6757
69.6757
69.6757
69.6757
69.6757
69.6757
69.6757
69.6757
69.6757
69.6757
69.6757
69.6757
69.6757
69.6757
69.6757
69.6757
69.6757
69.6757
69.6757
69.6757
69.6757
69.6757
69.6757
69.6757
69.6757
69.6757
69.6757
69.6757
69.6757
69.6757
69.6757
69.6757
69.6757
69.6757
69.6757
69.6757
69.6757
69.6757
69.6757
69.6757
69.6757
69.6757
69.6757
69.6757
69.6757
69.6757
69.6757
69.6757
69.6757
69.6757
69.6757
69.6757
69.6757
69.6757
69.6757
69.6757
69.6757
69.6757
69.6757
69.6757
69.6757
69.6757
69.6757
69.6757
69.6757
69.6757
69.6757
69.6757
69.6757
69.6757
69.6757
69.6757
69.6757
69.6757
69.6757
69.6757
69.6757
69.6757
69.6757
69.6757
69.6757
69.6757
69.6757
69.6757
69.6757
69.6757
69.6757
69.6757
69.6757
69.6757
69.6757
69.6757
69.6757
69.6757
69.6757
69.5705
69.5705
69.5705
69.5705
69.5705
69.5706
69.5706
69.5706
69.5706
69.5706
69.5706
69.5707
69.5707
69.5707
69.5709
69.571
69.571
69.5711
69.5712
69.5712
69.5713
69.5713
69.5714
69.5715
69.5716
69.5716
69.5716
69.5719
69.572
69.5721
69.5722
69.5722
69.5728
69.5729
69.5733
69.5735
69.5737
69.5742
69.5743
69.5746
69.5761
69.5768
69.577
69.5771
69.5779
69.5779
69.578
69.5781
69.5782
69.5788
69.5788
69.579
69.5791
69.5792
69.5808
69.5831
69.5832
69.5833
69.5849
69.5851
69.5853
69.5872
69.5879
69.5887
69.5888
69.5893
69.5895
69.5896
69.5897
69.5909
69.5914
69.5922
69.5923
69.5925
69.5928
69.594
69.5973
69.5983
69.5984
69.5987
69.5989
69.5992
69.5994
69.6002
69.6007
69.6013
69.6019
69.6028
69.6033
69.607
69.607
69.6087
69.6091
69.6103
69.6126
69.6131
69.6137
69.6139
69.6162
69.6164
69.5119
69.514
69.5148
69.5156
69.5157
69.5172
69.5179
69.5187
69.5189
69.5207
69.5227
69.5228
69.5243
69.5252
69.5258
69.5263
69.5271
69.5285
69.5291
69.5317
69.5323
69.5328
69.5355
69.537
69.5378
69.5389
69.539
69.5427
69.5435
69.5439
69.5455
69.5461
69.5465
69.5465
69.5472
69.5476
69.548
69.5503
69.5531
69.554
69.5545
69.5574
69.5579
69.5627
69.5683
69.5696
69.5699
69.5717
69.575
69.5791
69.5793
69.5796
69.58
69.5802
69.5804
69.5809
69.5827
69.5835
69.584
69.584
69.5875
69.5899
69.5904
69.5918
69.5923
69.5924
69.5925
69.5934
69.5979
69.598
69.5989
69.5989
69.6015
69.6024
69.6031
69.6043
69.6062
69.6158
69.616
69.6176
69.6176
69.6178
69.6182
69.6199
69.6203
69.6204
69.6217
69.6288
69.6307
69.6353
69.6356
69.6365
69.6371
69.6371
69.6382
69.6397
69.6421
69.6428
69.6433
69.6458
69.5417
69.5465
69.549
69.5547
69.5552
69.5575
69.5577
69.5599
69.5644
69.5676
69.5758
69.576
69.5775
69.5785
69.584
69.5846
69.5867
69.5871
69.5889
69.59
69.5929
69.5992
69.5993
69.6167
69.6226
69.6239
69.6239
69.6344
69.6359
69.6359
69.6434
69.6443
69.6465
69.6487
69.6489
69.6636
69.6712
69.6728
69.6795
69.6812
69.6903
69.6905
69.6936
69.6951
69.7005
69.7133
69.7139
69.7228
69.7266
69.7305
69.7432
69.7478
69.7519
69.757
69.7618
69.7677
69.7758
69.791
69.794
69.7942
69.8059
69.8086
69.8114
69.825
69.8284
69.8339
69.8367
69.8451
69.8506
69.8602
69.8664
69.8672
69.8787
69.8807
69.8877
69.8878
69.8954
69.8958
69.9177
69.9204
69.9283
69.9304
69.9319
69.9503
69.9568
69.9657
69.9716
69.9848
70.0106
70.0163
70.0165
70.0179
70.0265
70.0563
70.0591
70.0597
70.0774
70.083
70.0982
70.1051
70.0021
70.0089
70.0129
70.016
70.0285
70.0422
70.0702
70.0885
70.0907
70.0964
70.1142
70.1287
70.1297
70.1337
70.1338
70.1381
70.1394
70.1439
70.146
70.1541
70.1557
70.1711
70.1756
70.192
70.201
70.2011
70.2012
70.2057
70.209
70.216
70.2182
70.2306
70.2342
70.2444
70.252
70.2586
70.2771
70.2866
70.2956
70.3042
70.315
70.323
70.3329
70.3347
70.356
70.365
70.3756
70.3768
70.3769
70.3814
70.3972
70.4085
70.4118
70.4165
70.4203
70.4226
70.4269
70.4353
70.4415
70.4516
70.4759
70.4763
70.4802
70.4961
70.5407
70.5496
70.564
70.5707
70.6113
70.6125
70.6437
70.6473
70.6523
70.6528
70.6529
70.6626
70.674
70.6797
70.6913
70.7072
70.7092
70.7173
70.7282
70.7437
70.7537
70.7864
70.8007
70.8029
70.803
70.8144
70.8193
70.833
70.8388
70.8426
70.8446
70.8592
70.8607
70.8811
70.9406
70.9746
70.874
70.8953
70.9025
70.9096
70.9101
70.9181
70.9246
70.9313
70.9421
70.9525
70.9528
70.9662
70.9681
70.9948
71.0053
71.0094
71.0099
71.0294
71.0468
71.0472
71.0715
71.1109
71.1111
71.1267
71.1328
71.1506
71.1537
71.1678
71.1907
71.2021
71.2044
71.2228
71.2428
71.2537
71.2685
71.2737
71.2783
71.2882
71.2924
71.306
71.3164
71.3251
71.3764
71.3779
71.3837
71.3851
71.3925
71.3944
71.4034
71.4052
71.4234
71.4254
71.4419
71.4419
71.4431
71.4561
71.4674
71.473
71.4747
71.4965
71.5049
71.5272
71.5442
71.5457
71.5487
71.55
71.5563
71.5697
71.5917
71.5999
71.6088
71.6285
71.6357
71.6379
71.6435
71.6514
71.6545
71.6546
71.6649
71.6749
71.7126
71.7147
71.7157
71.7355
71.7762
71.8165
71.829
71.8375
71.8562
71.872
71.8894
71.8911
71.9127
71.9436
71.9465
71.9505
71.9513
71.9616
72
72.0006
71.8976
71.8982
71.9003
71.9098
71.9275
71.9564
71.9585
71.9633
71.9808
71.9866
72
72.015
72.0473
72.0528
72.0547
72.0579
72.0701
72.1011
72.1114
72.1166
72.15
72.1606
72.1608
72.162
72.1641
72.1694
72.1854
72.2014
72.2072
72.2077
72.2106
72.2367
72.2378
72.2394
72.25
72.2784
72.2823
72.3055
72.3201
72.3331
72.3931
72.4154
72.4268
72.4359
72.4451
72.4633
72.4834
72.4989
72.5047
72.5676
72.5692
72.5794
72.5808
72.592
72.626
72.6298
72.6343
72.644
72.6448
72.6601
72.6608
72.6653
72.671
72.7014
72.7038
72.7084
72.7146
72.7151
72.7422
72.7713
72.7737
72.783
72.7901
72.7999
72.803
72.8224
72.8828
72.8834
72.8877
72.8903
72.9262
72.9317
72.9694
72.9765
72.9775
72.9783
72.9889
72.9902
73.0143
73.0374
73.0822
73.0937
73.1289
73.1743
73.1786
73.182
73.2046
73.2064
73.2451
73.2498
73.1473
73.1596
73.1666
73.1717
73.1809
73.1884
73.1897
73.1922
73.1964
73.2053
73.2179
73.2383
73.239
73.2409
73.3034
73.3089
73.3338
73.3436
73.3578
73.4074
73.4179
73.4245
73.43
73.4519
73.4657
73.4736
73.4744
73.4815
73.494
73.5054
73.5094
73.5165
73.5243
73.525
73.5331
73.5334
73.5363
73.5399
73.547
73.5472
73.5525
73.5573
73.574
73.5774
73.5788
73.5884
73.5913
73.6131
73.6344
73.6566
73.6577
73.6696
73.6903
73.7093
73.7283
73.7345
73.766
73.7919
73.8117
73.8286
73.8664
73.8714
73.8822
73.9369
73.9376
73.9397
73.9411
73.957
73.9682
73.9713
73.9774
74.017
74.0217
74.0228
74.04
74.0859
74.095
74.1113
74.128
74.1366
74.1419
74.1591
74.1621
74.1673
74.1792
74.1949
74.2062
74.2075
74.217
74.2283
74.2639
74.2791
74.2914
74.2999
74.3104
74.3114
74.3738
74.3755
74.391
74.3953
74.319
74.3422
74.3672
74.3706
74.3814
74.3865
74.3929
74.4232
74.4334
74.4369
74.4462
74.4522
74.4601
74.4605
74.4942
74.5056
74.5312
74.5348
74.5429
74.5466
74.5496
74.5662
74.5986
74.6042
74.6102
74.6155
74.6181
74.6256
74.6435
74.6614
74.6782
74.6785
74.7023
74.7127
74.7186
74.733
74.7355
74.7469
74.7715
74.777
74.7872
74.79
74.7924
74.7983
74.8083
74.8167
74.8285
74.8454
74.8603
74.8885
74.9188
74.9325
74.946
74.9584
74.9586
74.9755
74.9755
74.9773
74.9839
75.0018
75.0093
75.0233
75.0593
75.0707
75.0747
75.078
75.0793
75.0843
75.0907
75.099
75.1018
75.1327
75.1374
75.1542
75.1875
75.1936
75.2251
75.2257
75.269
75.2713
75.286
75.3163
75.321
75.3511
75.354
75.3621
75.3667
75.3763
75.4341
75.4518
75.4572
75.4657
75.4706
75.4715
75.4785
75.4825
75.5132
75.5383
75.5447
75.5707
75.4975
75.4978
75.5267
75.5296
75.544
75.5892
75.6294
75.6319
75.6332
75.639
75.64
75.6817
75.695
75.7015
75.7039
75.7146
75.7816
75.7908
75.8009
75.8221
75.8255
75.8397
75.8426
75.8573
75.8794
75.8902
75.9044
75.915
75.9344
75.9504
75.9536
75.961
75.9699
75.9795
75.9843
76.0049
76.0349
76.0357
76.0765
76.0861
76.0979
76.1187
76.1549
76.175
76.1981
76.2042
76.2054
76.2266
76.2289
76.265
76.3002
76.3298
76.331
76.3843
76.3902
76.415
76.4421
76.4496
76.4533
76.4565
76.4671
76.4853
76.5076
76.5174
76.546
76.547
76.5564
76.5596
76.5697
76.574
76.5864
76.6057
76.6086
76.6096
76.6274
76.6364
76.6422
76.6496
76.6617
76.674
76.6753
76.6951
76.7014
76.7355
76.7917
76.7933
76.7984
76.8204
76.8288
76.8326
76.9018
76.938
76.943
76.9533
76.9606
76.9989
77.006
77.0172
77.0194
77.0586
76.9795
76.9876
76.9904
77.066
77.067
77.0768
77.0926
77.1325
77.1471
77.1566
77.1842
77.192
77.1943
77.1953
77.2096
77.2126
77.2237
77.2352
77.2361
77.2483
77.2723
77.279
77.288
77.2896
77.3086
77.32
77.3361
77.3441
77.3446
77.3526
77.3616
77.3792
77.4114
77.4157
77.4432
77.4588
77.4618
77.5116
77.5163
77.5262
77.5613
77.6037
77.6062
77.6229
77.6286
77.6288
77.6299
77.6638
77.6713
77.7024
77.7193
77.7223
77.7273
77.7279
77.7297
77.759
77.7834
77.7837
77.8028
77.8494
77.8805
77.8849
77.886
77.8989
77.9116
77.938
77.9503
77.9771
78.0379
78.0394
78.0409
78.0581
78.0639
78.066
78.0982
78.1102
78.1151
78.1265
78.1426
78.2267
78.2285
78.2288
78.2392
78.2619
78.2727
78.2798
78.2831
78.2839
78.2929
78.3
78.3035
78.3107
78.3567
78.3645
78.3728
78.3781
78.3875
78.4009
78.4561
78.4725
78.3964
78.4436
78.4453
78.4475
78.4603
78.4685
78.4774
78.4983
78.5022
78.518
78.5354
78.5689
78.5999
78.6244
78.6264
78.6355
78.6489
78.6856
78.6866
78.6874
78.6942
78.7173
78.7245
78.7361
78.7375
78.7443
78.7463
78.767
78.7691
78.7701
78.8031
78.8204
78.8319
78.8725
78.9155
78.9408
78.9427
78.9772
79.0176
79.0479
79.0639
79.0664
79.0734
79.0748
79.084
79.0915
79.0932
79.094
79.1138
79.1319
79.1401
79.1447
79.1832
79.208
79.2141
79.235
79.2545
79.2632
79.2904
79.2925
79.2926
79.2941
79.2975
79.3039
79.3632
79.3713
79.3751
79.3799
79.3813
79.3979
79.4126
79.4366
79.4902
79.4966
79.5271
79.537
79.5393
79.5395
79.5638
79.6111
79.6355
79.6407
79.6438
79.6652
79.681
79.6843
79.6983
79.7173
79.7492
79.7856
79.8143
79.8152
79.8298
79.8859
79.8979
79.9057
79.9069
79.9113
79.9463
79.9498
79.8543
79.8551
79.9009
79.9202
79.9313
79.9455
79.9566
80.0496
80.0536
80.064
80.0769
80.079
80.0875
80.0956
80.1294
80.1451
80.1457
80.1609
80.1693
80.1694
80.1845
80.2051
80.2315
80.2325
80.2462
80.2475
80.2805
80.3448
80.347
80.3631
80.3647
80.3903
80.4345
80.471
80.4758
80.4779
80.4867
80.4955
80.5014
80.5139
80.5518
80.5529
80.5667
80.5871
80.5901
80.6206
80.6219
80.6367
80.6418
80.6424
80.6431
80.6437
80.6584
80.6596
80.6659
80.6681
80.6881
80.6966
80.7045
80.7438
80.7851
80.8246
80.8327
80.8626
80.8647
80.877
80.8806
80.8807
80.8877
80.8923
80.8983
80.9184
80.9194
80.9324
80.9441
80.952
80.959
81.0006
81.0011
81.0333
81.0435
81.0482
81.0652
81.0868
81.0889
81.1017
81.1314
81.1384
81.1609
81.1651
81.1694
81.181
81.2426
81.2445
81.2583
81.2866
81.293
81.3111
81.3196
81.3206
81.2186
81.2361
81.2639
81.3138
81.3379
81.3405
81.3484
81.3555
81.3619
81.3682
81.3878
81.4476
81.4518
81.4793
81.4804
81.4967
81.5057
81.5175
81.5253
81.5362
81.5448
81.5697
81.5748
81.5972
81.6435
81.6527
81.6897
81.7026
81.7106
81.7128
81.7303
81.7526
81.7565
81.7946
81.8176
81.8258
81.8287
81.8309
81.8607
81.8663
81.872
81.8745
81.9062
81.9162
81.9533
81.9645
81.9717
81.9864
81.9882
81.9937
82.0198
82.0233
82.0363
82.0425
82.0479
82.0557
82.0629
82.0999
82.1169
82.1182
82.1291
82.1527
82.1957
82.1998
82.2368
82.2442
82.2492
82.2579
82.2682
82.2728
82.2945
82.3148
82.3926
82.4001
82.4209
82.432
82.4536
82.5125
82.5143
82.5149
82.5433
82.5531
82.5559
82.565
82.5791
82.5813
82.5895
82.598
82.6164
82.6686
82.6752
82.6944
82.7028
82.7055
82.7246
82.73
82.7407
82.752
82.7573
82.7734
82.6686
82.6704
82.6818
82.6942
82.7156
82.7298
82.7409
82.7843
82.7977
82.7994
82.8022
82.8036
82.8041
82.8285
82.8287
82.8349
82.8593
82.8942
82.9016
82.9058
82.9112
82.9195
82.9266
82.9294
82.941
82.9566
82.9682
82.9688
82.9768
82.9831
83.0271
83.0714
83.1472
83.1677
83.1774
83.1924
83.205
83.209
83.2147
83.2242
83.2264
83.2323
83.2524
83.2666
83.2741
83.2953
83.2966
83.3519
83.3538
83.3566
83.3775
83.4025
83.4119
83.4123
83.4225
83.4385
83.4499
83.454
83.4716
83.4735
83.477
83.491
83.4983
83.5053
83.5234
83.5607
83.5985
83.6434
83.6549
83.6577
83.6634
83.6848
83.6855
83.6878
83.7006
83.7151
83.7408
83.7662
83.789
83.8007
83.8105
83.8155
83.8438
83.8486
83.8609
83.8693
83.8745
83.875
83.8963
83.905
83.9327
83.9338
83.9499
83.9795
83.9928
84.0009
84.0012
84.0099
84.0165
84.0248
83.9301
83.9492
83.9644
83.9658
84.0166
84.0247
84.054
84.0666
84.0895
84.0908
84.0987
84.101
84.1445
84.1563
84.1904
84.215
84.2201
84.2268
84.242
84.2425
84.2634
84.2788
84.2952
84.2956
84.308
84.3134
84.3369
84.3491
84.4113
84.4168
84.4318
84.4429
84.4573
84.4894
84.5007
84.5369
84.5442
84.5734
84.6007
84.614
84.6351
84.6494
84.6582
84.6755
84.6778
84.685
84.7037
84.7159
84.7322
84.7379
84.7459
84.7519
84.7537
84.7617
84.8196
84.8353
84.8889
84.8891
84.9225
84.9372
84.9634
84.9713
84.9792
84.9961
85.0006
85.015
85.0403
85.0696
85.0768
85.1229
85.1761
85.2118
85.2546
85.2764
85.2853
85.293
85.2944
85.3033
85.3632
85.3959
85.4075
85.4235
85.4243
85.4362
85.4524
85.4537
85.477
85.5064
85.57
85.5788
85.5847
85.6086
85.6155
85.6195
85.6326
85.6432
85.648
85.6601
85.6732
85.6994
85.6475
85.6496
85.6503
85.6692
85.6793
85.6875
85.6888
85.6932
85.6988
85.7003
85.7855
85.822
85.8254
85.8566
85.8633
85.9155
85.9182
85.9256
85.9476
85.9887
86.0011
86.0144
86.0294
86.0307
86.0453
86.0459
86.054
86.0772
86.0818
86.1124
86.1131
86.1144
86.1464
86.147
86.1997
86.2181
86.2266
86.2291
86.2295
86.2392
86.2417
86.2615
86.2674
86.2714
86.2991
86.3043
86.3123
86.333
86.3505
86.36
86.3787
86.38
86.3814
86.3939
86.4322
86.4356
86.4704
86.4706
86.4754
86.4779
86.4878
86.4975
86.5064
86.5129
86.514
86.5551
86.5609
86.6017
86.6053
86.6187
86.6476
86.658
86.6589
86.6624
86.6634
86.7119
86.7165
86.7206
86.7338
86.7509
86.7509
86.7801
86.7948
86.8328
86.8382
86.8405
86.8554
86.9302
86.9319
86.9426
87.0156
87.0232
87.0448
87.0571
87.0639
87.0727
87.0729
87.0752
87.0771
87.094
86.9937
86.9981
87.0061
87.0099
87.0148
87.0223
87.029
87.0445
87.0567
87.0844
87.091
87.0912
87.1044
87.1255
87.1346
87.1479
87.1493
87.1547
87.1652
87.2009
87.2395
87.248
87.249
87.2564
87.2759
87.284
87.2855
87.3082
87.354
87.3622
87.389
87.3913
87.3955
87.4005
87.4012
87.4094
87.4108
87.4295
87.4348
87.4408
87.4427
87.4602
87.5053
87.5288
87.5422
87.571
87.6216
87.6535
87.6617
87.6931
87.7063
87.7465
87.7676
87.8
87.801
87.822
87.8327
87.8456
87.8496
87.8558
87.8681
87.877
87.8921
87.9087
87.9251
87.9262
87.9489
87.9534
87.956
88.0603
88.0706
88.0771
88.0804
88.1394
88.1547
88.1574
88.1697
88.1725
88.2117
88.2618
88.2916
88.2933
88.2934
88.308
88.3229
88.341
88.418
88.4213
88.4401
88.4422
88.4622
88.4853
88.4989
88.5077
88.5127
88.5437
88.5956
88.6027
88.6144
88.6172
88.524
88.5339
88.5485
88.5518
88.556
88.5903
88.5986
88.6135
88.6297
88.656
88.6729
88.6844
88.7131
88.7308
88.7527
88.7694
88.784
88.7841
88.8263
88.8318
88.8359
88.8433
88.8447
88.8753
88.9044
88.9119
88.9207
88.9318
88.94
88.9418
88.9506
88.9516
88.969
88.9787
88.9802
88.9803
88.9899
89.0011
89.0062
89.0124
89.0245
89.0335
89.0438
89.0563
89.058
89.0615
89.0647
89.0649
89.0884
89.0905
89.107
89.1327
89.1464
89.1477
89.172
89.177
89.1827
89.2061
89.2284
89.2295
89.2303
89.2362
89.2436
89.2683
89.2714
89.2894
89.2911
89.3117
89.3758
89.3806
89.4063
89.4079
89.412
89.4324
89.4995
89.5001
89.5295
89.5504
89.552
89.5754
89.5915
89.6056
89.6117
89.6255
89.6268
89.6332
89.647
89.6718
89.6991
89.7084
89.7197
89.7237
89.7271
89.7444
89.763
89.7804
89.8031
89.8044
89.8094
89.8139
89.7125
89.7225
89.7444
89.7666
89.7698
89.7755
89.8027
89.8268
89.8476
89.8512
89.8709
89.8752
89.9315
89.9369
89.9405
89.9424
89.9618
89.9916
89.9956
90.0002
90.0049
90.0176
90.0754
90.081
90.1038
90.112
90.1124
90.1187
90.1257
90.1351
90.1361
90.1379
90.183
90.2188
90.2515
90.2594
90.28
90.3037
90.3294
90.3309
90.3425
90.3515
90.359
90.3617
90.3646
90.3753
90.427
90.4378
90.4849
90.5164
90.5441
90.5444
90.5542
90.5636
90.5659
90.5759
90.5763
90.5885
90.6107
90.6195
90.6383
90.6532
90.6557
90.6709
90.679
90.6947
90.704
90.7089
90.7108
90.773
90.7821
90.7882
90.7948
90.8145
90.8245
90.8754
90.8795
90.8933
90.8963
90.8976
90.9064
90.9247
90.9256
90.9258
90.9334
90.942
90.9559
90.9892
90.9978
91.0312
91.034
91.039
91.045
91.0755
91.0759
91.0829
91.1044
91.1055
91.1078
91.1152
91.0114
91.0359
91.038
91.0429
91.0836
91.101
91.1176
91.13
91.1685
91.1723
91.1804
91.1989
91.2241
91.2285
91.248
91.2483
91.2533
91.2721
91.3377
91.3416
91.3441
91.349
91.3533
91.372
91.3725
91.402
91.418
91.4474
91.4675
91.4714
91.4768
91.4937
91.499
91.5095
91.5097
91.5235
91.5504
91.5697
91.5789
91.6041
91.6361
91.6421
91.6573
91.6792
91.6815
91.6944
91.7181
91.7522
91.7652
91.8028
91.8527
91.8756
91.8757
91.8774
91.914
91.9149
91.9732
91.9848
91.9877
91.9883
92.0293
92.0715
92.0907
92.1027
92.1114
92.12
92.1206
92.1359
92.1518
92.1739
92.194
92.2392
92.2589
92.2746
92.2823
92.2837
92.2927
92.2977
92.3186
92.3268
92.3492
92.372
92.3756
92.3803
92.381
92.4119
92.4184
92.4344
92.4409
92.4416
92.4501
92.4539
92.4793
92.5293
92.5328
92.5475
92.5515
92.5595
92.5737
92.5859
92.5445
92.5491
92.569
92.5734
92.5992
92.6025
92.6227
92.6375
92.6411
92.6677
92.6818
92.6974
92.7053
92.7081
92.7179
92.737
92.7381
92.7497
92.7659
92.7764
92.7862
92.7882
92.8096
92.8125
92.8243
92.8425
92.8633
92.8878
92.8974
92.908
92.9156
92.9467
92.9561
92.9682
92.9742
92.9814
92.9841
93.0137
93.0237
93.0459
93.0506
93.0776
93.1736
93.1905
93.1906
93.2419
93.2571
93.2646
93.2669
93.2933
93.2998
93.3027
93.3185
93.3352
93.3424
93.3738
93.3739
93.3798
93.3827
93.3906
93.4367
93.437
93.445
93.4496
93.4543
93.4701
93.4739
93.4821
93.5186
93.5366
93.5511
93.557
93.5876
93.5901
93.6012
93.6273
93.6496
93.6691
93.742
93.7811
93.8364
93.8798
93.9283
93.93
93.9449
93.9482
93.9654
93.9684
94.0078
94.0636
94.0859
94.1021
94.113
94.1252
94.1289
94.1922
94.2794
94.3001
94.3069
94.4026
94.3111
94.3156
94.3199
94.3481
94.3561
94.3706
94.3708
94.4107
94.4243
94.4271
94.4396
94.4543
94.4582
94.4889
94.5199
94.5232
94.5246
94.5579
94.5678
94.5682
94.6031
94.6106
94.6167
94.6384
94.6497
94.6524
94.6559
94.659
94.6721
94.6868
94.6876
94.6926
94.7131
94.7143
94.718
94.753
94.7688
94.7719
94.7727
94.7854
94.8005
94.8098
94.8153
94.8412
94.8504
94.8515
94.8555
94.934
94.95
94.9887
94.9915
95.0138
95.0479
95.0665
95.0682
95.0877
95.1101
95.1331
95.1333
95.1654
95.18
95.1968
95.2041
95.2173
95.2629
95.2646
95.3005
95.3012
95.3231
95.3308
95.3378
95.3563
95.3589
95.3625
95.365
95.3681
95.3715
95.3812
95.3913
95.3951
95.3967
95.4033
95.4145
95.4301
95.4364
95.4483
95.4586
95.459
95.4769
95.481
95.4925
95.4979
95.524
95.531
95.5493
95.5503
95.5896
95.596
95.6165
95.6366
95.5436
95.5529
95.5599
95.561
95.5672
95.5939
95.6177
95.6326
95.6825
95.6865
95.6869
95.6968
95.7097
95.7198
95.7249
95.7323
95.7334
95.774
95.7796
95.7804
95.7992
95.8022
95.8397
95.8563
95.8702
95.8733
95.8856
95.888
95.9084
95.9238
95.9267
95.9453
95.9478
95.9908
95.9915
95.9958
96.0022
96.0239
96.028
96.0295
96.043
96.0456
96.0476
96.0749
96.1427
96.1803
96.2145
96.227
96.2318
96.2432
96.2794
96.2805
96.3096
96.3146
96.3204
96.3367
96.3441
96.3646
96.3693
96.3843
96.3881
96.4189
96.4621
96.4739
96.4875
96.4935
96.5308
96.5357
96.5517
96.5612
96.5703
96.571
96.5771
96.5905
96.6033
96.6617
96.7327
96.7593
96.7595
96.7766
96.8441
96.8528
96.8676
96.9014
96.9032
96.9729
96.9955
97.0221
97.0348
97.07
97.085
97.0858
97.1018
97.1149
97.1282
97.134
97.1353
97.1925
97.1957
97.2351
97.1501
97.1603
97.1849
97.1974
97.1988
97.2167
97.2171
97.2265
97.2344
97.2424
97.2496
97.2671
97.2771
97.2783
97.2966
97.2982
97.3134
97.3291
97.3408
97.3736
97.3822
97.3861
97.3894
97.4204
97.428
97.4665
97.4743
97.4824
97.501
97.517
97.5213
97.5713
97.6241
97.6513
97.6542
97.6913
97.6915
97.695
97.6981
97.711
97.719
97.7253
97.7413
97.7642
97.7647
97.7892
97.8109
97.8211
97.8398
97.8467
97.8485
97.8533
97.8547
97.8586
97.8724
97.8747
97.9082
97.9088
97.912
97.9339
97.9361
97.9587
97.9671
98.0079
98.0084
98.0263
98.0539
98.0612
98.0809
98.1051
98.1216
98.127
98.1334
98.1479
98.1651
98.2151
98.2443
98.2513
98.3027
98.3221
98.342
98.348
98.3527
98.374
98.426
98.4337
98.4384
98.455
98.4696
98.5019
98.5146
98.5448
98.5467
98.585
98.589
98.6132
98.6327
98.6423
98.6824
98.7175
98.6172
98.6283
98.6544
98.6638
98.6768
98.7129
98.7164
98.7669
98.7811
98.7973
98.798
98.8045
98.8252
98.8321
98.8602
98.8836
98.9048
98.9204
98.9288
98.9423
98.9956
99.0051
99.0086
99.0125
99.0137
99.0192
99.0303
99.0429
99.0627
99.0694
99.0802
99.1151
99.1242
99.1297
99.1303
99.1342
99.1383
99.1606
99.1775
99.2181
99.2483
99.2664
99.2679
99.2746
99.3043
99.3187
99.3205
99.3368
99.3464
99.3486
99.35
99.3504
99.3597
99.3667
99.3759
99.389
99.3945
99.4006
99.4155
99.4567
99.4871
99.4962
99.5028
99.5653
99.5682
99.5986
99.6478
99.6517
99.6578
99.6649
99.6903
99.695
99.713
99.7159
99.7191
99.7354
99.7418
99.8184
99.8228
99.8379
99.8533
99.8791
99.8846
99.8932
99.9054
99.9101
99.9109
99.9165
99.9172
99.9463
99.9578
99.9608
99.9616
99.9784
99.9953
100.004
100.005
100.01
100.03
100.036
99.959
99.9673
99.9857
100.001
100.003
100.012
100.013
100.021
100.048
100.05
100.113
100.117
100.12
100.148
100.149
100.191
100.2
100.262
100.29
100.303
100.305
100.307
100.318
100.366
100.37
100.371
100.372
100.383
100.399
100.416
100.421
100.443
100.46
100.463
100.467
100.496
100.54
100.544
100.564
100.597
100.62
100.638
100.651
100.653
100.654
100.655
100.671
100.683
100.687
100.697
100.702
100.719
100.728
100.735
100.746
100.751
100.786
100.794
100.815
100.838
100.973
100.977
100.986
101.003
101.041
101.044
101.056
101.06
101.069
101.079
101.087
101.089
101.091
101.094
101.106
101.108
101.111
101.119
101.122
101.157
101.167
101.174
101.195
101.197
101.245
101.255
101.275
101.278
101.355
101.362
101.369
101.377
101.388
101.39
101.501
101.518
101.584
101.591
101.618
101.62
101.54
101.555
101.597
101.608
101.645
101.665
101.667
101.672
101.672
101.684
101.687
101.699
101.705
101.716
101.8
101.83
101.838
101.842
101.852
101.899
101.906
101.911
101.913
101.919
101.936
101.939
101.943
101.948
101.952
101.953
101.978
101.995
102
102.025
102.032
102.034
102.078
102.087
102.094
102.102
102.105
102.11
102.117
102.122
102.136
102.137
102.143
102.153
102.174
102.181
102.189
102.197
102.2
102.2
102.2
102.23
102.244
102.262
102.266
102.303
102.308
102.324
102.331
102.333
102.344
102.371
102.379
102.394
102.409
102.415
102.474
102.492
102.504
102.512
102.516
102.559
102.58
102.587
102.591
102.591
102.603
102.622
102.63
102.638
102.647
102.696
102.697
102.702
102.722
102.752
102.768
102.783
102.827
102.859
102.86
102.861
102.878
102.89
102.97
102.977
102.88
102.909
102.91
102.924
102.927
102.928
102.95
103.012
103.025
103.028
103.04
103.072
103.106
103.109
103.118
103.124
103.158
103.168
103.205
103.21
103.219
103.235
103.238
103.278
103.296
103.345
103.364
103.396
103.418
103.439
103.458
103.462
103.464
103.472
103.486
103.496
103.526
103.528
103.537
103.548
103.553
103.559
103.581
103.583
103.602
103.604
103.66
103.665
103.684
103.726
103.738
103.788
103.796
103.806
103.843
103.844
103.863
103.864
103.871
103.876
103.882
103.891
103.895
103.897
103.943
103.946
103.997
104.004
104.012
104.027
104.032
104.038
104.056
104.063
104.078
104.083
104.09
104.106
104.123
104.124
104.164
104.179
104.227
104.244
104.257
104.276
104.301
104.348
104.354
104.358
104.384
104.384
104.4
104.403
104.406
104.421
104.426
104.43
104.46
104.462
104.358
104.362
104.377
104.399
104.425
104.447
104.447
104.46
104.468
104.488
104.504
104.512
104.517
104.557
104.562
104.579
104.581
104.583
104.601
104.608
104.611
104.65
104.672
104.699
104.71
104.721
104.723
104.789
104.819
104.823
104.851
104.857
104.862
104.883
104.905
104.926
104.933
104.962
105.065
105.074
105.077
105.111
105.133
105.139
105.151
105.153
105.161
105.173
105.182
105.189
105.203
105.211
105.221
105.237
105.237
105.249
105.256
105.275
105.275
105.287
105.298
105.33
105.346
105.367
105.378
105.387
105.418
105.424
105.424
105.428
105.431
105.48
105.487
105.501
105.505
105.515
105.527
105.558
105.621
105.629
105.632
105.636
105.661
105.678
105.685
105.689
105.691
105.693
105.789
105.797
105.83
105.861
105.894
105.899
105.948
105.951
105.976
105.996
106.024
106.026
105.934
105.949
105.959
105.963
105.972
105.977
106.014
106.023
106.028
106.051
106.054
106.075
106.077
106.09
106.092
106.114
106.152
106.202
106.208
106.23
106.239
106.253
106.264
106.266
106.306
106.353
106.36
106.385
106.389
106.395
106.42
106.457
106.485
106.497
106.529
106.542
106.597
106.61
106.623
106.63
106.638
106.689
106.693
106.707
106.726
106.729
106.732
106.757
106.782
106.793
106.794
106.8
106.808
106.861
106.864
106.888
106.893
106.899
106.917
106.932
106.962
106.971
106.997
107.014
107.033
107.049
107.066
107.08
107.102
107.103
107.123
107.13
107.131
107.133
107.14
107.146
107.148
107.152
107.174
107.213
107.25
107.256
107.262
107.348
107.35
107.369
107.369
107.37
107.378
107.384
107.413
107.42
107.429
107.434
107.436
107.441
107.448
107.456
107.483
107.489
107.425
107.454
107.485
107.5
107.505
107.515
107.523
107.551
107.555
107.556
107.562
107.563
107.579
107.587
107.588
107.624
107.641
107.642
107.668
107.67
107.703
107.705
107.707
107.74
107.753
107.756
107.761
107.775
107.855
107.888
107.914
107.918
107.926
107.95
107.96
107.976
107.978
108.012
108.025
108.088
108.124
108.173
108.177
108.183
108.199
108.199
108.199
108.205
108.236
108.284
108.29
108.296
108.306
108.317
108.318
108.34
108.35
108.379
108.38
108.381
108.383
108.419
108.443
108.446
108.466
108.489
108.537
108.566
108.578
108.61
108.611
108.614
108.688
108.718
108.74
108.755
108.777
108.792
108.808
108.816
108.829
108.961
108.979
108.992
109.005
109.011
109.019
109.025
109.03
109.054
109.085
109.094
109.13
109.164
109.185
109.187
109.196
109.204
109.224
109.245
109.158
109.169
109.179
109.181
109.184
109.187
109.202
109.225
109.231
109.27
109.271
109.272
109.276
109.283
109.288
109.338
109.341
109.357
109.363
109.372
109.372
109.384
109.403
109.425
109.431
109.488
109.531
109.533
109.555
109.565
109.569
109.577
109.582
109.619
109.64
109.67
109.691
109.694
109.704
109.717
109.723
109.748
109.773
109.779
109.794
109.795
109.796
109.802
109.809
109.815
109.832
109.86
109.862
109.895
109.919
109.927
109.951
109.964
109.979
109.983
109.985
110.001
110.014
110.031
110.095
110.105
110.105
110.133
110.137
110.139
110.144
110.186
110.209
110.222
110.227
110.233
110.251
110.258
110.261
110.272
110.303
110.327
110.331
110.362
110.381
110.424
110.431
110.449
110.457
110.486
110.504
110.504
110.521
110.539
110.565
110.568
110.578
110.598
110.603
110.613
110.521
110.534
110.563
110.587
110.646
110.648
110.657
110.702
110.726
110.749
110.77
110.791
110.792
110.793
110.804
110.831
110.837
110.842
110.843
110.878
110.903
110.918
110.925
110.939
110.967
110.973
110.977
110.978
110.992
111.009
111.016
111.035
111.059
111.071
111.087
111.092
111.093
111.107
111.12
111.13
111.143
111.157
111.161
111.165
111.165
111.185
111.187
111.201
111.235
111.243
111.264
111.268
111.275
111.283
111.286
111.293
111.293
111.308
111.319
111.357
111.373
111.417
111.439
111.47
111.493
111.541
111.552
111.556
111.563
111.597
111.6
111.61
111.613
111.628
111.636
111.697
111.715
111.716
111.727
111.749
111.756
111.762
111.779
111.779
111.8
111.803
111.816
111.827
111.853
111.871
111.874
111.884
111.903
111.905
111.917
111.927
111.95
111.972
111.982
112.015
111.921
111.927
111.931
111.938
111.953
111.958
111.991
111.999
112.01
112.039
112.045
112.06
112.072
112.12
112.126
112.128
112.13
112.135
112.168
112.181
112.182
112.185
112.199
112.205
112.22
112.257
112.299
112.306
112.31
112.314
112.315
112.327
112.332
112.357
112.359
112.375
112.375
112.377
112.392
112.401
112.443
112.479
112.493
112.51
112.543
112.57
112.571
112.597
112.598
112.603
112.616
112.62
112.621
112.625
112.635
112.664
112.667
112.704
112.708
112.713
112.755
112.769
112.793
112.8
112.807
112.814
112.823
112.832
112.845
112.849
112.876
112.878
112.899
112.933
112.935
112.937
112.985
113.006
113.039
113.062
113.075
113.123
113.132
113.148
113.149
113.196
113.218
113.245
113.26
113.275
113.304
113.358
113.377
113.395
113.397
113.402
113.423
113.459
113.511
113.517
113.449
113.525
113.554
113.565
113.597
113.604
113.656
113.662
113.675
113.684
113.723
113.729
113.731
113.741
113.756
113.787
113.823
113.825
113.845
113.852
113.864
113.867
113.87
113.905
113.915
113.929
113.937
113.94
113.956
113.985
113.989
113.999
114.018
114.031
114.04
114.049
114.053
114.053
114.07
114.086
114.097
114.107
114.117
114.139
114.142
114.145
114.18
114.208
114.21
114.231
114.239
114.259
114.259
114.265
114.299
114.303
114.304
114.305
114.307
114.311
114.319
114.352
114.365
114.371
114.377
114.381
114.415
114.418
114.436
114.441
114.46
114.478
114.492
114.494
114.502
114.517
114.533
114.54
114.596
114.609
114.613
114.64
114.66
114.662
114.679
114.705
114.753
114.794
114.796
114.797
114.809
114.812
114.816
114.84
114.861
114.903
114.904
114.906
114.913
114.924
114.843
114.846
114.903
114.913
114.913
114.951
114.968
114.975
114.985
114.986
115.008
115.011
115.06
115.094
115.099
115.11
115.117
115.119
115.134
115.151
115.159
115.168
115.216
115.246
115.269
115.27
115.273
115.277
115.308
115.324
115.368
115.388
115.407
115.416
115.423
115.467
115.48
115.486
115.489
115.529
115.531
115.553
115.566
115.621
115.65
115.666
115.708
115.713
115.745
115.755
115.761
115.768
115.776
115.79
115.811
115.853
115.857
115.87
115.876
115.891
115.896
115.898
115.909
115.913
115.913
116.052
116.057
116.067
116.112
116.119
116.141
116.155
116.207
116.228
116.23
116.289
116.294
116.295
116.313
116.315
116.347
116.362
116.364
116.392
116.411
116.444
116.483
116.524
116.532
116.535
116.547
116.564
116.57
116.576
116.576
116.602
116.607
116.615
116.634
116.635
116.584
116.591
116.596
116.598
116.618
116.623
116.63
116.654
116.688
116.707
116.749
116.763
116.781
116.814
116.834
116.842
116.86
116.864
116.88
116.885
116.89
116.902
116.905
116.959
116.971
116.994
116.998
117.008
117.03
117.073
117.09
117.114
117.148
117.181
117.181
117.215
117.223
117.234
117.265
117.333
117.337
117.35
117.36
117.365
117.391
117.417
117.417
117.457
117.506
117.533
117.559
117.56
117.574
117.579
117.581
117.588
117.659
117.687
117.707
117.72
117.735
117.741
117.753
117.756
117.779
117.849
117.891
117.908
117.925
117.949
117.956
117.971
117.992
118.041
118.047
118.076
118.084
118.093
118.095
118.105
118.137
118.147
118.153
118.166
118.168
118.18
118.206
118.208
118.254
118.264
118.283
118.309
118.329
118.358
118.359
118.366
118.37
118.382
118.384
118.39
118.306
118.366
118.401
118.459
118.47
118.475
118.482
118.518
118.533
118.575
118.587
118.588
118.608
118.617
118.649
118.654
118.681
118.689
118.691
118.694
118.7
118.71
118.756
118.759
118.769
118.774
118.838
118.865
118.872
118.885
118.894
118.898
118.908
118.923
118.933
118.942
118.99
118.996
119
119.046
119.059
119.06
119.064
119.083
119.098
119.13
119.146
119.149
119.166
119.173
119.18
119.194
119.196
119.214
119.223
119.259
119.26
119.28
119.313
119.326
119.403
119.414
119.427
119.444
119.464
119.474
119.599
119.623
119.656
119.663
119.671
119.685
119.712
119.712
119.72
119.782
119.804
119.851
119.864
119.87
119.878
119.893
119.894
119.93
119.93
119.967
120
120.05
120.062
120.08
120.083
120.098
120.168
120.186
120.233
120.235
120.292
120.298
120.324
120.337
120.232
120.244
120.252
120.261
120.281
120.282
120.295
120.319
120.337
120.343
120.376
120.379
120.382
120.384
120.385
120.394
120.408
120.411
120.425
120.43
120.466
120.479
120.482
120.494
120.518
120.522
120.528
120.546
120.551
120.56
120.563
120.584
120.593
120.603
120.627
120.629
120.63
120.634
120.677
120.677
120.736
120.738
120.742
120.752
120.756
120.758
120.764
120.771
120.779
120.8
120.807
120.819
120.84
120.846
120.867
120.886
120.909
120.954
121.01
121.025
121.068
121.078
121.081
121.129
121.138
121.143
121.153
121.17
121.176
121.201
121.204
121.21
121.212
121.214
121.217
121.223
121.231
121.232
121.239
121.273
121.276
121.306
121.339
121.35
121.359
121.368
121.37
121.371
121.394
121.394
121.436
121.467
121.489
121.533
121.572
121.572
121.591
121.606
121.632
121.647
121.569
121.569
121.58
121.606
121.62
121.629
121.676
121.695
121.702
121.705
121.738
121.775
121.781
121.787
121.817
121.838
121.914
121.933
121.938
121.953
121.983
122.018
122.058
122.059
122.064
122.072
122.105
122.253
122.259
122.281
122.324
122.347
122.386
122.389
122.454
122.457
122.526
122.552
122.569
122.57
122.575
122.63
122.667
122.672
122.739
122.778
122.787
122.802
122.807
122.827
122.855
122.855
122.873
122.919
122.973
122.995
122.998
123.002
123.095
123.098
123.127
123.13
123.146
123.157
123.178
123.209
123.222
123.228
123.245
123.271
123.307
123.338
123.342
123.343
123.36
123.393
123.407
123.444
123.457
123.567
123.568
123.592
123.622
123.644
123.647
123.651
123.674
123.677
123.686
123.705
123.736
123.761
123.767
123.772
123.789
123.834
123.875
123.89
123.895
123.913
123.831
123.831
123.839
123.858
123.863
123.886
123.896
123.897
123.941
123.965
123.971
123.987
124.042
124.074
124.077
124.087
124.102
124.106
124.159
124.182
124.194
124.197
124.219
124.259
124.26
124.304
124.347
124.349
124.359
124.361
124.393
124.436
124.451
124.484
124.496
124.519
124.532
124.567
124.581
124.593
124.599
124.768
124.805
124.829
124.867
124.886
124.93
124.941
124.943
125.004
125.044
125.089
125.092
125.103
125.112
125.193
125.203
125.211
125.242
125.364
125.421
125.424
125.452
125.515
125.522
125.563
125.581
125.598
125.616
125.649
125.66
125.668
125.689
125.719
125.721
125.746
125.752
125.753
125.778
125.798
125.813
125.815
125.848
125.86
125.876
125.883
125.9
125.94
125.953
125.954
126.018
126.05
126.061
126.072
126.084
126.094
126.105
126.119
126.141
126.165
126.071
126.116
126.123
126.128
126.18
126.206
126.217
126.219
126.268
126.284
126.323
126.37
126.379
126.38
126.387
126.406
126.41
126.414
126.431
126.455
126.525
126.547
126.553
126.572
126.578
126.609
126.632
126.664
126.67
126.736
126.772
126.774
126.835
126.92
126.929
126.933
126.944
126.95
126.966
126.975
127.006
127.028
127.032
127.069
127.093
127.096
127.122
127.127
127.155
127.163
127.171
127.219
127.273
127.295
127.299
127.342
127.39
127.404
127.477
127.48
127.518
127.541
127.558
127.558
127.562
127.572
127.607
127.657
127.68
127.689
127.705
127.727
127.742
127.818
127.829
127.839
127.845
127.853
127.857
127.886
127.897
127.938
127.966
127.986
127.998
128.007
128.031
128.037
128.087
128.101
128.107
128.114
128.171
128.222
128.25
128.268
128.292
128.33
128.35
128.353
128.298
128.361
128.377
128.38
128.399
128.434
128.477
128.497
128.507
128.516
128.54
128.55
128.562
128.58
128.587
128.587
128.651
128.659
128.663
128.693
128.699
128.76
128.804
128.814
128.818
128.822
128.837
128.837
128.865
128.903
128.93
128.939
128.945
128.946
128.966
128.973
129.006
129.009
129.024
129.067
129.079
129.095
129.152
129.17
129.176
129.177
129.182
129.291
129.302
129.392
129.4
129.4
129.41
129.493
129.542
129.545
129.572
129.583
129.59
129.611
129.62
129.658
129.672
129.762
129.765
129.799
129.815
129.832
129.834
129.848
129.864
129.878
129.886
129.913
129.963
129.987
129.995
130.019
130.05
130.178
130.188
130.202
130.221
130.225
130.269
130.337
130.387
130.394
130.396
130.5
130.528
130.554
130.646
130.708
130.746
130.841
130.844
130.847
130.852
130.852
130.774
130.859
130.873
130.978
130.999
131.003
131.005
131.026
131.054
131.061
131.111
131.118
131.165
131.225
131.283
131.317
131.341
131.356
131.369
131.403
131.458
131.5
131.507
131.58
131.597
131.612
131.629
131.631
131.64
131.644
131.644
131.651
131.666
131.705
131.707
131.724
131.734
131.768
131.77
131.785
131.861
131.913
131.923
131.946
131.957
131.963
132.004
132.004
132.063
132.063
132.068
132.083
132.084
132.091
132.113
132.226
132.258
132.274
132.275
132.292
132.301
132.321
132.326
132.336
132.337
132.401
132.417
132.428
132.431
132.451
132.451
132.48
132.495
132.515
132.543
132.552
132.576
132.581
132.667
132.687
132.697
132.707
132.709
132.721
132.745
132.808
132.815
132.844
132.846
132.857
132.861
132.88
132.894
132.954
133.014
133.017
133.048
133.074
133.108
133.129
133.163
133.177
133.206
133.206
133.262
133.284
133.331
133.348
133.37
133.403
133.441
133.443
133.445
133.455
133.515
133.531
133.545
133.552
133.553
133.577
133.699
133.704
133.855
133.867
133.913
133.956
133.96
133.968
134.001
134.077
134.123
134.154
134.181
134.202
134.205
134.237
134.265
134.306
134.309
134.312
134.347
134.362
134.422
134.524
134.553
134.668
134.717
134.76
134.84
134.841
134.861
134.866
134.879
134.91
134.944
134.985
135.016
135.042
135.057
135.086
135.091
135.102
135.105
135.111
135.116
135.129
135.171
135.177
135.214
135.244
135.28
135.3
135.302
135.317
135.325
135.329
135.332
135.434
135.554
135.601
135.639
135.835
135.838
135.918
135.92
135.947
135.953
135.966
136.052
136.054
136.058
136.06
136.069
136.129
136.271
136.3
136.334
136.386
136.393
136.41
136.423
136.435
136.518
136.522
136.533
136.629
136.729
136.747
136.79
136.791
136.796
136.887
136.889
136.966
136.978
136.985
136.993
137.002
137.052
137.106
137.157
137.271
137.299
137.31
137.427
137.462
137.476
137.484
137.558
137.668
137.696
137.81
137.815
137.848
137.863
137.865
137.901
137.957
137.998
138.009
138.142
138.146
138.227
138.227
138.248
138.263
138.297
138.33
138.383
138.42
138.451
138.489
138.511
138.552
138.632
138.645
138.653
138.655
138.69
138.708
138.821
138.832
138.834
138.849
138.898
138.924
138.931
138.943
138.956
139.02
139.102
139.13
139.149
139.209
139.217
139.323
139.365
139.437
139.473
139.511
139.719
139.766
139.776
139.813
139.816
139.822
139.835
139.858
139.886
139.992
140.011
140.102
140.136
140.148
140.219
140.255
140.286
140.354
140.398
140.453
140.464
140.47
140.479
140.479
140.502
140.504
140.547
140.572
140.617
140.639
140.666
140.708
140.719
140.832
140.874
140.958
140.989
141.084
141.114
141.126
141.189
141.21
141.245
141.272
141.33
141.331
141.473
141.515
141.542
141.567
141.578
141.604
141.611
141.625
141.709
141.76
141.762
141.836
141.854
141.861
141.862
141.88
141.93
141.959
142.021
142.088
142.28
142.295
142.32
142.329
142.334
142.36
142.415
142.416
142.448
142.52
142.607
142.625
142.63
142.689
142.767
142.767
142.803
142.851
142.884
142.926
142.937
142.961
142.962
143
143.071
143.102
143.11
143.12
143.127
143.156
143.179
143.216
143.257
143.257
143.296
143.3
143.335
143.374
143.392
143.494
143.508
143.52
143.539
143.542
143.591
143.596
143.628
143.631
143.64
143.692
143.705
143.71
143.726
143.755
143.777
144.005
144.072
144.188
144.204
144.248
144.27
144.277
144.31
144.366
144.41
144.439
144.527
144.593
144.637
144.638
144.658
144.722
144.737
144.742
144.744
144.78
144.798
144.837
144.873
144.931
144.938
144.946
145.187
145.208
145.261
145.332
145.464
145.504
145.509
145.516
145.539
145.62
145.687
145.727
145.752
145.776
145.808
145.907
145.92
145.948
145.965
145.975
146.074
146.138
146.155
146.366
146.444
146.549
146.586
146.622
146.649
146.652
146.721
146.784
146.828
146.932
146.986
147.052
147.059
147.14
147.161
147.174
147.188
147.2
147.229
147.289
147.311
147.325
147.355
147.412
147.412
147.464
147.569
147.58
147.587
147.591
147.628
147.652
147.699
147.717
147.762
147.891
147.92
147.971
148.027
148.046
148.162
148.208
148.483
148.507
148.533
148.541
148.598
148.722
148.806
148.848
148.939
149.012
149.056
149.281
149.285
149.358
149.386
149.43
149.479
149.578
149.609
149.643
149.653
149.752
149.764
149.855
149.919
149.981
149.993
150.21
150.331
150.411
150.432
150.443
150.444
150.548
150.553
150.569
150.591
150.628
150.688
150.8
150.807
150.813
150.885
150.911
150.956
150.991
151.002
151.032
151.152
151.232
151.344
151.397
151.469
151.541
151.572
151.588
151.615
151.689
151.691
151.754
151.884
151.906
151.912
151.988
152.005
152.1
152.142
152.24
152.318
152.355
152.378
152.383
152.387
152.559
152.618
152.637
152.645
152.659
152.747
152.909
152.954
153.013
153.075
153.082
153.134
153.138
153.235
153.539
153.544
153.603
153.881
153.925
153.966
154.05
154.06
154.07
154.156
154.182
154.33
154.361
154.379
154.537
154.558
154.624
154.752
154.767
154.784
154.814
154.902
154.922
155.02
155.289
155.448
155.586
155.63
155.645
155.743
155.915
155.938
155.985
156.076
156.185
156.186
156.254
156.278
156.326
156.394
156.395
156.594
156.663
156.813
156.952
156.961
157.105
157.236
157.322
157.352
157.529
157.534
157.594
157.595
157.652
157.719
157.741
157.773
157.798
157.9
157.913
157.943
157.984
158.035
158.081
158.118
158.158
158.198
158.236
158.337
158.343
158.598
158.761
158.786
158.933
158.961
158.976
159.119
159.16
159.183
159.191
159.2
159.211
159.247
159.283
159.368
159.457
159.478
159.525
159.62
159.652
159.731
159.764
159.881
159.99
160.502
160.939
160.988
161.023
161.108
161.133
161.468
161.61
162.026
162.048
162.1
162.106
162.158
162.285
162.3
162.613
162.663
162.736
162.738
162.824
163.034
163.061
163.208
163.314
163.322
163.338
163.394
163.521
163.548
163.578
163.627
163.777
163.851
163.96
163.996
164.091
164.192
164.225
164.33
164.387
164.391
164.407
164.637
164.81
164.979
164.979
165.11
165.19
165.294
165.365
165.432
165.458
165.472
165.524
165.619
165.631
165.648
165.799
165.964
165.99
166.004
166.09
166.112
166.358
166.374
166.464
166.511
166.526
166.649
166.839
167.057
167.172
167.299
167.395
167.408
167.479
167.527
167.591
167.822
167.83
167.842
167.986
167.996
168.01
168.169
168.293
168.388
168.467
168.515
168.701
168.714
168.727
168.737
168.749
168.818
168.86
168.862
168.916
168.993
169.109
169.145
169.326
169.402
169.492
169.97
170.439
170.545
170.551
170.608
170.662
170.694
170.758
170.792
171.014
171.1
171.175
171.559
171.59
171.903
172.08
172.1
172.155
172.255
172.282
172.487
172.728
172.747
172.894
172.964
173.001
173.08
173.166
173.199
173.272
173.273
173.389
173.524
174.413
174.444
174.675
174.99
175.09
175.164
175.287
175.303
175.335
175.342
175.593
175.661
175.709
175.823
175.994
176.05
176.163
176.171
176.256
176.275
176.369
176.439
176.979
177.015
177.215
177.269
177.687
177.731
177.736
178.105
178.274
178.328
178.571
178.952
178.99
178.998
179.018
179.385
179.418
179.502
179.753
179.832
180.339
180.469
180.469
180.578
180.878
180.916
180.951
181.498
181.755
182.401
182.408
182.526
182.731
182.806
182.963
183.153
183.227
183.421
183.755
183.95
184.518
184.736
184.98
184.997
185.158
185.732
185.971
185.976
186.075
186.833
187.302
187.528
187.866
187.876
188.127
188.16
188.172
188.299
188.396
188.429
188.455
188.493
188.597
188.63
188.71
188.894
189
189.317
189.331
189.477
189.819
189.85
190.718
190.907
191.423
191.433
191.869
191.952
192.23
192.564
192.652
192.98
193.254
193.347
193.356
194.077
194.297
194.342
194.362
194.556
194.569
195.151
195.485
195.812
197.119
197.461
198.424
198.495
200.139
200.598
201.016
201.533
201.68
202.083
202.7
203.051
203.858
203.898
204.016
204.577
204.995
205.045
205.319
205.499
205.604
205.84
206.582
206.763
206.8
207.049
207.211
207.216
207.473
207.596
207.626
207.782
208.001
208.073
208.192
208.326
210.883
210.935
211.022
211.806
212.278
212.285
212.516
212.526
213.284
214.581
215.68
215.719
216.224
216.405
216.491
217.121
217.503
217.571
220.232
221.48
222.588
223.071
223.279
224.05
224.061
225.83
228.755
229.766
231.12
232.624
232.77
238.835
240.83
248.426
253.084
